{"learner":{"attributes":{"scikit_learn":"{\"_estimator_type\": \"regressor\"}"},"feature_names":[],"feature_types":[],"gradient_booster":{"model":{"cats":{"enc":[],"feature_segments":[],"sorted_idx":[]},"gbtree_model_param":{"num_parallel_tree":"1","num_trees":"500"},"iteration_indptr":[0,1,2,3,4,5,6,7,8,9,10,11,12,13,14,15,16,17,18,19,20,21,22,23,24,25,26,27,28,29,30,31,32,33,34,35,36,37,38,39,40,41,42,43,44,45,46,47,48,49,50,51,52,53,54,55,56,57,58,59,60,61,62,63,64,65,66,67,68,69,70,71,72,73,74,75,76,77,78,79,80,81,82,83,84,85,86,87,88,89,90,91,92,93,94,95,96,97,98,99,100,101,102,103,104,105,106,107,108,109,110,111,112,113,114,115,116,117,118,119,120,121,122,123,124,125,126,127,128,129,130,131,132,133,134,135,136,137,138,139,140,141,142,143,144,145,146,147,148,149,150,151,152,153,154,155,156,157,158,159,160,161,162,163,164,165,166,167,168,169,170,171,172,173,174,175,176,177,178,179,180,181,182,183,184,185,186,187,188,189,190,191,192,193,194,195,196,197,198,199,200,201,202,203,204,205,206,207,208,209,210,211,212,213,214,215,216,217,218,219,220,221,222,223,224,225,226,227,228,229,230,231,232,233,234,235,236,237,238,239,240,241,242,243,244,245,246,247,248,249,250,251,252,253,254,255,256,257,258,259,260,261,262,263,264,265,266,267,268,269,270,271,272,273,274,275,276,277,278,279,280,281,282,283,284,285,286,287,288,289,290,291,292,293,294,295,296,297,298,299,300,301,302,303,304,305,306,307,308,309,310,311,312,313,314,315,316,317,318,319,320,321,322,323,324,325,326,327,328,329,330,331,332,333,334,335,336,337,338,339,340,341,342,343,344,345,346,347,348,349,350,351,352,353,354,355,356,357,358,359,360,361,362,363,364,365,366,367,368,369,370,371,372,373,374,375,376,377,378,379,380,381,382,383,384,385,386,387,388,389,390,391,392,393,394,395,396,397,398,399,400,401,402,403,404,405,406,407,408,409,410,411,412,413,414,415,416,417,418,419,420,421,422,423,424,425,426,427,428,429,430,431,432,433,434,435,436,437,438,439,440,441,442,443,444,445,446,447,448,449,450,451,452,453,454,455,456,457,458,459,460,461,462,463,464,465,466,467,468,469,470,471,472,473,474,475,476,477,478,479,480,481,482,483,484,485,486,487,488,489,490,491,492,493,494,495,496,497,498,499,500],"tree_info":[0,0,0,0,0,0,0,0,0,0,0,0,0,0,0,0,0,0,0,0,0,0,0,0,0,0,0,0,0,0,0,0,0,0,0,0,0,0,0,0,0,0,0,0,0,0,0,0,0,0,0,0,0,0,0,0,0,0,0,0,0,0,0,0,0,0,0,0,0,0,0,0,0,0,0,0,0,0,0,0,0,0,0,0,0,0,0,0,0,0,0,0,0,0,0,0,0,0,0,0,0,0,0,0,0,0,0,0,0,0,0,0,0,0,0,0,0,0,0,0,0,0,0,0,0,0,0,0,0,0,0,0,0,0,0,0,0,0,0,0,0,0,0,0,0,0,0,0,0,0,0,0,0,0,0,0,0,0,0,0,0,0,0,0,0,0,0,0,0,0,0,0,0,0,0,0,0,0,0,0,0,0,0,0,0,0,0,0,0,0,0,0,0,0,0,0,0,0,0,0,0,0,0,0,0,0,0,0,0,0,0,0,0,0,0,0,0,0,0,0,0,0,0,0,0,0,0,0,0,0,0,0,0,0,0,0,0,0,0,0,0,0,0,0,0,0,0,0,0,0,0,0,0,0,0,0,0,0,0,0,0,0,0,0,0,0,0,0,0,0,0,0,0,0,0,0,0,0,0,0,0,0,0,0,0,0,0,0,0,0,0,0,0,0,0,0,0,0,0,0,0,0,0,0,0,0,0,0,0,0,0,0,0,0,0,0,0,0,0,0,0,0,0,0,0,0,0,0,0,0,0,0,0,0,0,0,0,0,0,0,0,0,0,0,0,0,0,0,0,0,0,0,0,0,0,0,0,0,0,0,0,0,0,0,0,0,0,0,0,0,0,0,0,0,0,0,0,0,0,0,0,0,0,0,0,0,0,0,0,0,0,0,0,0,0,0,0,0,0,0,0,0,0,0,0,0,0,0,0,0,0,0,0,0,0,0,0,0,0,0,0,0,0,0,0,0,0,0,0,0,0,0,0,0,0,0,0,0,0,0,0,0,0,0,0,0,0,0,0,0,0,0,0,0,0,0,0,0,0,0,0,0,0,0,0,0,0,0,0,0,0,0,0,0,0,0,0,0,0,0,0,0,0,0,0,0,0,0,0,0,0,0,0,0,0,0,0,0,0,0],"trees":[{"base_weights":[1.2317517E5,1.0923042E7,-4.2231025E6,5.2330244E5,1.6962304E7,-1.2943783E7,-5.170502E5,-1.6419322E6,7.928275E6,1.980533E7,1.3243195E7,-4.7441628E5,-1.0129964E7,4.694234E6,-2.4286815E6,-9.152049E4,1.2683337E5,5.01775E4,2.764646E5,4.4138528E5,7.0158294E5,7.046828E4,4.1877875E5,-3.3635766E5,-2.0124798E5,-1.4469667E5,2.8498016E5,-2.4015746E4,-1.3372464E5],"categories":[],"categories_nodes":[],"categories_segments":[],"categories_sizes":[],"default_left":[0,0,0,0,0,0,0,0,0,0,0,0,0,0,0,0,0,0,0,0,0,0,0,0,0,0,0,0,0],"id":0,"left_children":[1,3,5,7,9,11,13,15,17,19,21,-1,23,25,27,-1,-1,-1,-1,-1,-1,-1,-1,-1,-1,-1,-1,-1,-1],"loss_changes":[5.4307864E16,2.084297E16,2.6656727E16,1.9851386E15,1.9581486E15,1.8264821E15,5.7893915E15,8.06718E14,2.100537E14,1.7894251E15,7.005371E14,0E0,3.9495875E14,7.1800697E15,1.4002979E15,0E0,0E0,0E0,0E0,0E0,0E0,0E0,0E0,0E0,0E0,0E0,0E0,0E0,0E0],"parents":[2147483647,0,0,1,1,2,2,3,3,4,4,5,5,6,6,7,7,8,8,9,9,10,10,12,12,13,13,14,14],"right_children":[2,4,6,8,10,12,14,16,18,20,22,-1,24,26,28,-1,-1,-1,-1,-1,-1,-1,-1,-1,-1,-1,-1,-1,-1],"split_conditions":[1.6E1,9.95E1,6.5E1,8.5E1,1E1,4E1,2.3E1,9.83E1,1E0,7.5E1,1E0,-4.7441628E5,1E0,9.98E1,3.1E1,-9.152049E4,1.2683337E5,5.01775E4,2.764646E5,4.4138528E5,7.0158294E5,7.046828E4,4.1877875E5,-3.3635766E5,-2.0124798E5,-1.4469667E5,2.8498016E5,-2.4015746E4,-1.3372464E5],"split_indices":[3,6,2,2,3,2,3,6,41,2,41,0,4,6,3,0,0,0,0,0,0,0,0,0,0,0,0,0,0],"split_type":[0,0,0,0,0,0,0,0,0,0,0,0,0,0,0,0,0,0,0,0,0,0,0,0,0,0,0,0,0],"sum_hessian":[1.155E3,3.31E2,8.24E2,1.22E2,2.09E2,2.45E2,5.79E2,9.5E1,2.7E1,1.16E2,9.3E1,1.19E2,1.26E2,1.55E2,4.24E2,7.7E1,1.8E1,5E0,2.2E1,5E1,6.6E1,6E0,8.7E1,9.4E1,3.2E1,5.2E1,1.03E2,2.36E2,1.88E2],"tree_param":{"num_deleted":"0","num_feature":"54","num_nodes":"29","size_leaf_vector":"1"}},{"base_weights":[-1.7103873E5,1.0707268E7,-4.1882418E6,1.2983196E6,1.6624551E7,-1.2773516E7,-5.330857E5,6.2044425E6,-2.2946888E6,1.2420632E7,1.8579058E7,-4.685028E5,-1.0007576E7,4.1939802E6,-2.474901E6,1.0798624E5,3.1206584E5,2.1287878E5,-1.30797766E5,2.565015E5,4.374989E5,6.068864E5,4.0408494E5,-3.3659478E5,-2.3603478E5,-1.4329377E5,2.7635756E5,7.0727246E3,-1.3752595E5],"categories":[],"categories_nodes":[],"categories_segments":[],"categories_sizes":[],"default_left":[0,0,0,0,0,0,0,0,0,0,0,0,0,0,0,0,0,0,0,0,0,0,0,0,0,0,0,0,0],"id":1,"left_children":[1,3,5,7,9,11,13,15,17,19,21,-1,23,25,27,-1,-1,-1,-1,-1,-1,-1,-1,-1,-1,-1,-1,-1,-1],"loss_changes":[4.990696E16,1.712644E16,2.6164546E16,2.1295664E15,1.3221713E15,1.8019063E15,5.389326E15,5.2022778E14,1.3885118E15,4.0267144E14,7.985418E14,0E0,2.4634E14,7.741242E15,2.3795963E15,0E0,0E0,0E0,0E0,0E0,0E0,0E0,0E0,0E0,0E0,0E0,0E0,0E0,0E0],"parents":[2147483647,0,0,1,1,2,2,3,3,4,4,5,5,6,6,7,7,8,8,9,9,10,10,12,12,13,13,14,14],"right_children":[2,4,6,8,10,12,14,16,18,20,22,-1,24,26,28,-1,-1,-1,-1,-1,-1,-1,-1,-1,-1,-1,-1,-1,-1],"split_conditions":[1.6E1,9.98E1,6.5E1,1E-1,1.023E2,3E1,2.3E1,8.5E1,1E1,7.5E1,1.2E1,-4.685028E5,1E0,9.98E1,1.1E1,1.0798624E5,3.1206584E5,2.1287878E5,-1.30797766E5,2.565015E5,4.374989E5,6.068864E5,4.0408494E5,-3.3659478E5,-2.3603478E5,-1.4329377E5,2.7635756E5,7.0727246E3,-1.3752595E5],"split_indices":[3,6,2,5,6,2,3,2,0,2,3,0,42,6,0,0,0,0,0,0,0,0,0,0,0,0,0,0,0],"split_type":[0,0,0,0,0,0,0,0,0,0,0,0,0,0,0,0,0,0,0,0,0,0,0,0,0,0,0,0,0],"sum_hessian":[1.14E3,3.07E2,8.33E2,1.19E2,1.88E2,2.48E2,5.85E2,5E1,6.9E1,6.2E1,1.26E2,1.2E2,1.28E2,1.7E2,4.15E2,3.2E1,1.8E1,1.2E1,5.7E1,2.4E1,3.8E1,9.3E1,3.3E1,7.9E1,4.9E1,6.1E1,1.09E2,1.82E2,2.33E2],"tree_param":{"num_deleted":"0","num_feature":"54","num_nodes":"29","size_leaf_vector":"1"}},{"base_weights":[1.13791695E5,1.2086822E7,-3.4729108E6,1.8193938E6,1.7239052E7,-1.2285499E7,-5.4033434E4,-1.4404186E6,5.8299065E6,1.3894611E7,2.0774142E7,-1.4508624E7,-8.950245E6,-1.7154672E6,5.721254E6,1.3884902E5,-1.158534E5,2.309512E5,1.0270634E3,4.8580156E5,3.0535772E5,3.3697662E5,6.797491E5,-4.5382475E5,-3.591139E5,-3.2117594E5,-2.3277531E5,4.3152707E4,-1.1541866E5,2.7874062E5,-6.4926246E4],"categories":[],"categories_nodes":[],"categories_segments":[],"categories_sizes":[],"default_left":[0,0,0,0,0,0,0,0,0,0,0,0,0,0,0,0,0,0,0,0,0,0,0,0,0,0,0,0,0,0,0],"id":2,"left_children":[1,3,5,7,9,11,13,15,17,19,21,23,25,27,29,-1,-1,-1,-1,-1,-1,-1,-1,-1,-1,-1,-1,-1,-1,-1,-1],"loss_changes":[5.0114327E16,1.4198771E16,2.7055318E16,1.1980878E15,1.8276589E15,1.7312283E15,6.2275415E15,7.6729604E14,4.4372622E14,6.466911E14,1.2736081E15,5.296339E13,1.3231076E14,3.3941945E15,4.102133E15,0E0,0E0,0E0,0E0,0E0,0E0,0E0,0E0,0E0,0E0,0E0,0E0,0E0,0E0,0E0,0E0],"parents":[2147483647,0,0,1,1,2,2,3,3,4,4,5,5,6,6,7,7,8,8,9,9,10,10,11,11,12,12,13,13,14,14],"right_children":[2,4,6,8,10,12,14,16,18,20,22,24,26,28,30,-1,-1,-1,-1,-1,-1,-1,-1,-1,-1,-1,-1,-1,-1,-1,-1],"split_conditions":[1.4E1,9.95E1,6.5E1,8E1,1.056E2,5E1,8.5E1,1.3E1,1E0,1.7E1,7E1,3E1,9.9E1,1.1E1,2.8E1,1.3884902E5,-1.158534E5,2.309512E5,1.0270634E3,4.8580156E5,3.0535772E5,3.3697662E5,6.797491E5,-4.5382475E5,-3.591139E5,-3.2117594E5,-2.3277531E5,4.3152707E4,-1.1541866E5,2.7874062E5,-6.4926246E4],"split_indices":[3,6,2,2,6,2,2,0,19,0,2,2,6,0,3,0,0,0,0,0,0,0,0,0,0,0,0,0,0,0,0],"split_type":[0,0,0,0,0,0,0,0,0,0,0,0,0,0,0,0,0,0,0,0,0,0,0,0,0,0,0,0,0,0,0],"sum_hessian":[1.165E3,2.68E2,8.97E2,9E1,1.78E2,2.5E2,6.47E2,5E1,4E1,9.4E1,8.4E1,1.48E2,1.02E2,5.03E2,1.44E2,1.4E1,3.6E1,3E1,1E1,5.6E1,3.8E1,1.5E1,6.9E1,1.15E2,3.3E1,3.8E1,6.4E1,2.03E2,3E2,9.9E1,4.5E1],"tree_param":{"num_deleted":"0","num_feature":"54","num_nodes":"31","size_leaf_vector":"1"}},{"base_weights":[-2.0234945E4,-1.0545535E7,3.21655E6,-1.3689469E7,-5.763548E6,1.484323E6,8.531391E6,-4.4029822E5,-1.0856847E7,-7.2610035E6,3.6749975E6,4.9419385E6,-1.2047975E6,9.490783E6,-2.868986E6,-3.3242022E5,-8.412508E3,-2.2906138E5,2.1043703E5,2.5750262E5,-1.15861055E5,2.3405664E5,8.943204E4,-5.817646E4,2.2651361E5,3.0298853E5,-1.4671455E5,1.3958247E5,-1.0755397E5],"categories":[],"categories_nodes":[],"categories_segments":[],"categories_sizes":[],"default_left":[0,0,0,0,0,0,0,0,0,0,0,0,0,0,0,0,0,0,0,0,0,0,0,0,0,0,0,0,0],"id":3,"left_children":[1,3,5,7,9,11,13,-1,15,17,19,21,23,25,27,-1,-1,-1,-1,-1,-1,-1,-1,-1,-1,-1,-1,-1,-1],"loss_changes":[4.0268385E16,4.1006222E15,8.310022E15,3.0762274E14,1.60967E15,6.3564507E15,2.4553383E15,0E0,1.0815479E14,5.7196885E14,6.250686E14,1.6535313E15,2.4901968E15,1.8443363E15,1.1364064E14,0E0,0E0,0E0,0E0,0E0,0E0,0E0,0E0,0E0,0E0,0E0,0E0,0E0,0E0],"parents":[2147483647,0,0,1,1,2,2,3,3,4,4,5,5,6,6,8,8,9,9,10,10,11,11,12,12,13,13,14,14],"right_children":[2,4,6,8,10,12,14,-1,16,18,20,22,24,26,28,-1,-1,-1,-1,-1,-1,-1,-1,-1,-1,-1,-1,-1,-1],"split_conditions":[6.5E1,5.5E1,8.5E1,3E1,1E0,1.2E1,1E0,-4.4029822E5,1E0,1E0,3E0,6E0,1E0,1E0,3E0,-3.3242022E5,-8.412508E3,-2.2906138E5,2.1043703E5,2.5750262E5,-1.15861055E5,2.3405664E5,8.943204E4,-5.817646E4,2.2651361E5,3.0298853E5,-1.4671455E5,1.3958247E5,-1.0755397E5],"split_indices":[2,2,2,2,17,0,48,0,24,37,1,0,17,49,1,0,0,0,0,0,0,0,0,0,0,0,0,0,0],"split_type":[0,0,0,0,0,0,0,0,0,0,0,0,0,0,0,0,0,0,0,0,0,0,0,0,0,0,0,0,0],"sum_hessian":[1.18E3,2.77E2,9.03E2,1.66E2,1.11E2,6.82E2,2.21E2,1.2E2,4.6E1,9.6E1,1.5E1,2.98E2,3.84E2,2.04E2,1.7E1,4.5E1,1E0,9.4E1,2E0,9E0,6E0,1.2E2,1.78E2,3.55E2,2.9E1,1.96E2,8E0,1E0,1.6E1],"tree_param":{"num_deleted":"0","num_feature":"54","num_nodes":"29","size_leaf_vector":"1"}},{"base_weights":[-3.228809E5,9.58058E6,-4.005605E6,1.1406594E7,-1.0742799E6,-1.1626515E7,-8.4895306E5,1.5669409E7,7.483729E6,3.5618558E6,-2.7655792E6,-4.159665E5,-8.546426E6,3.54075E6,-2.5082468E6,6.420118E5,4.322989E5,3.3644966E5,8.6732484E4,6.483606E4,1.8519078E5,7.385037E4,-1.4009084E5,-2.9389422E5,-1.7750098E5,1.9617803E5,-7.237272E4,6.5062793E4,-1.0226045E5],"categories":[],"categories_nodes":[],"categories_segments":[],"categories_sizes":[],"default_left":[0,0,0,0,0,0,0,0,0,0,0,0,0,0,0,0,0,0,0,0,0,0,0,0,0,0,0,0,0],"id":4,"left_children":[1,3,5,7,9,11,13,15,17,19,21,-1,23,25,27,-1,-1,-1,-1,-1,-1,-1,-1,-1,-1,-1,-1,-1,-1],"loss_changes":[4.2382037E16,6.140869E15,2.0366035E16,4.381075E15,3.78382E14,1.5918137E15,4.3791653E15,6.155096E14,2.4009383E15,3.420433E13,3.5986088E14,0E0,2.9377684E14,2.9611408E15,1.8435369E15,0E0,0E0,0E0,0E0,0E0,0E0,0E0,0E0,0E0,0E0,0E0,0E0,0E0,0E0],"parents":[2147483647,0,0,1,1,2,2,3,3,4,4,5,5,6,6,7,7,8,8,9,9,10,10,12,12,13,13,14,14],"right_children":[2,4,6,8,10,12,14,16,18,20,22,-1,24,26,28,-1,-1,-1,-1,-1,-1,-1,-1,-1,-1,-1,-1,-1,-1],"split_conditions":[1.6E1,1E0,6.5E1,1.4E1,1.2E1,4.5E1,2.3E1,3E0,0E0,2.5E-1,1E-1,-4.159665E5,1E0,1E0,6E0,6.420118E5,4.322989E5,3.3644966E5,8.6732484E4,6.483606E4,1.8519078E5,7.385037E4,-1.4009084E5,-2.9389422E5,-1.7750098E5,1.9617803E5,-7.237272E4,6.5062793E4,-1.0226045E5],"split_indices":[3,42,2,0,0,2,3,3,5,5,5,0,42,19,0,0,0,0,0,0,0,0,0,0,0,0,0,0,0],"split_type":[0,0,0,0,0,0,0,0,0,0,0,0,0,0,0,0,0,0,0,0,0,0,0,0,0,0,0,0,0],"sum_hessian":[1.16E3,3.14E2,8.46E2,2.68E2,4.6E1,2.47E2,5.99E2,1.27E2,1.41E2,1.2E1,3.4E1,1.41E2,1.06E2,1.64E2,4.35E2,2E1,1.07E2,7.7E1,6.4E1,9E0,3E0,9E0,2.5E1,7E1,3.6E1,1.09E2,5.5E1,7E1,3.65E2],"tree_param":{"num_deleted":"0","num_feature":"54","num_nodes":"29","size_leaf_vector":"1"}},{"base_weights":[9.653572E4,-6.781603E6,4.27723E6,-1.2586459E7,-3.57616E6,-2.290031E6,5.594531E6,-4.1426988E5,-9.509426E6,-4.5130835E6,3.6017215E6,-3.534028E6,4.955619E6,4.357337E6,1.1602615E7,-2.939945E5,5.772789E4,-9.0850555E4,-2.4362962E5,2.3308355E5,1.512674E4,-1.3690961E5,1.3962812E5,1.9011814E5,-4.3934445E4,7.79289E4,2.5047006E5,3.7741038E5,6.306266E3],"categories":[],"categories_nodes":[],"categories_segments":[],"categories_sizes":[],"default_left":[0,0,0,0,0,0,0,0,0,0,0,0,0,0,0,0,0,0,0,0,0,0,0,0,0,0,0,0,0],"id":5,"left_children":[1,3,5,7,9,11,13,-1,15,17,19,21,23,25,27,-1,-1,-1,-1,-1,-1,-1,-1,-1,-1,-1,-1,-1,-1],"loss_changes":[3.3011443E16,8.030485E15,6.1896674E15,4.4799945E14,1.9060155E15,1.0991412E15,4.372178E15,0E0,1.7490825E14,1.3092424E15,4.2209694E14,8.896214E14,1.6894703E14,3.455271E15,1.12236515E15,0E0,0E0,0E0,0E0,0E0,0E0,0E0,0E0,0E0,0E0,0E0,0E0,0E0,0E0],"parents":[2147483647,0,0,1,1,2,2,3,3,4,4,5,5,6,6,8,8,9,9,10,10,11,11,12,12,13,13,14,14],"right_children":[2,4,6,8,10,12,14,-1,16,18,20,22,24,26,28,-1,-1,-1,-1,-1,-1,-1,-1,-1,-1,-1,-1,-1,-1],"split_conditions":[7E1,5.5E1,9.9E1,3E1,1E0,9E1,1E0,-4.1426988E5,1E0,4.5E1,2.5E0,1E0,2.5E-1,8.5E1,1E0,-2.939945E5,5.772789E4,-9.0850555E4,-2.4362962E5,2.3308355E5,1.512674E4,-1.3690961E5,1.3962812E5,1.9011814E5,-4.3934445E4,7.79289E4,2.5047006E5,3.7741038E5,6.306266E3],"split_indices":[2,2,6,2,17,2,23,0,25,0,1,43,5,2,50,0,0,0,0,0,0,0,0,0,0,0,0,0,0],"split_type":[0,0,0,0,0,0,0,0,0,0,0,0,0,0,0,0,0,0,0,0,0,0,0,0,0,0,0,0,0],"sum_hessian":[1.146E3,4.33E2,7.13E2,1.53E2,2.8E2,1.19E2,5.94E2,1.07E2,4.6E1,2.48E2,3.2E1,1.02E2,1.7E1,4.94E2,1E2,4.5E1,1E0,1.77E2,7.1E1,1.3E1,1.9E1,9.1E1,1.1E1,1.4E1,3E0,3.44E2,1.5E2,9.2E1,8E0],"tree_param":{"num_deleted":"0","num_feature":"54","num_nodes":"29","size_leaf_vector":"1"}},{"base_weights":[7.268499E4,9.626484E6,-3.6543072E6,7.4444656E5,1.4943226E7,-1.100521E7,-5.820431E5,-2.3519008E6,4.687104E6,1.2166553E7,1.8004016E7,-4.0236275E5,-8.895616E6,-1.9131542E6,4.5919555E6,1.0234885E5,-1.2468613E5,2.4325328E5,2.896358E4,3.758724E5,6.3605734E4,2.8736053E5,5.8076144E5,-2.1840533E5,-3.113485E5,-2.2469519E5,-2.6251643E4,2.1369494E5,-3.1727385E4],"categories":[],"categories_nodes":[],"categories_segments":[],"categories_sizes":[],"default_left":[0,0,0,0,0,0,0,0,0,0,0,0,0,0,0,0,0,0,0,0,0,0,0,0,0,0,0,0,0],"id":6,"left_children":[1,3,5,7,9,11,13,15,17,19,21,-1,23,25,27,-1,-1,-1,-1,-1,-1,-1,-1,-1,-1,-1,-1,-1,-1],"loss_changes":[4.0983153E16,1.5242068E16,1.8693076E16,1.5003799E15,1.4977152E15,1.1196099E15,4.037778E15,7.317212E14,6.7975535E14,3.7042053E14,8.8746265E14,0E0,2.4300066E14,2.6911921E15,1.7235521E15,0E0,0E0,0E0,0E0,0E0,0E0,0E0,0E0,0E0,0E0,0E0,0E0,0E0,0E0],"parents":[2147483647,0,0,1,1,2,2,3,3,4,4,5,5,6,6,7,7,8,8,9,9,10,10,12,12,13,13,14,14],"right_children":[2,4,6,8,10,12,14,16,18,20,22,-1,24,26,28,-1,-1,-1,-1,-1,-1,-1,-1,-1,-1,-1,-1,-1,-1],"split_conditions":[1.6E1,9.98E1,6.5E1,8E1,1.056E2,3E1,8.5E1,1.3E1,1E1,1E0,7E1,-4.0236275E5,0E0,9.9E1,2.9E1,1.0234885E5,-1.2468613E5,2.4325328E5,2.896358E4,3.758724E5,6.3605734E4,2.8736053E5,5.8076144E5,-2.1840533E5,-3.113485E5,-2.2469519E5,-2.6251643E4,2.1369494E5,-3.1727385E4],"split_indices":[3,6,2,2,6,2,2,0,3,42,2,0,5,6,3,0,0,0,0,0,0,0,0,0,0,0,0,0,0],"split_type":[0,0,0,0,0,0,0,0,0,0,0,0,0,0,0,0,0,0,0,0,0,0,0,0,0,0,0,0,0],"sum_hessian":[1.149E3,3.22E2,8.27E2,1.21E2,2.01E2,2.43E2,5.84E2,6.8E1,5.3E1,1.08E2,9.3E1,1.11E2,1.32E2,4.65E2,1.19E2,1.6E1,5.2E1,2.7E1,2.6E1,1.04E2,4E0,1.4E1,7.9E1,6.6E1,6.6E1,7.2E1,3.93E2,8.2E1,3.7E1],"tree_param":{"num_deleted":"0","num_feature":"54","num_nodes":"29","size_leaf_vector":"1"}},{"base_weights":[2.3498531E4,-5.389123E6,2.6571962E6,-3.9107015E6,-8.421733E6,-1.7580845E6,4.6711405E6,-1.1214992E6,-5.9435975E6,-9.227666E6,-2.806293E6,-2.418349E4,-4.467053E6,3.417151E6,9.749501E6,-7.5895375E4,1.0577537E5,2.9143855E3,-1.8997875E5,-5.5337543E4,-2.848168E5,-4.2120914E4,-2.6646522E5,-2.0717148E4,2.3257081E5,-1.15393805E5,-3.243829E5,2.5358822E5,6.596394E4,2.027537E4,3.20629E5],"categories":[],"categories_nodes":[],"categories_segments":[],"categories_sizes":[],"default_left":[0,0,0,0,0,0,0,0,0,0,0,0,0,0,0,0,0,0,0,0,0,0,0,0,0,0,0,0,0,0,0],"id":7,"left_children":[1,3,5,7,9,11,13,15,17,19,21,23,25,27,29,-1,-1,-1,-1,-1,-1,-1,-1,-1,-1,-1,-1,-1,-1,-1,-1],"loss_changes":[1.6593128E16,1.6752692E15,6.970749E15,1.4562355E15,5.3528714E14,1.1553744E15,3.3927815E15,7.288779E14,3.507673E14,1.9477032E14,1.3236883E14,7.8786524E14,3.364668E14,2.638029E15,8.950798E14,0E0,0E0,0E0,0E0,0E0,0E0,0E0,0E0,0E0,0E0,0E0,0E0,0E0,0E0,0E0,0E0],"parents":[2147483647,0,0,1,1,2,2,3,3,4,4,5,5,6,6,7,7,8,8,9,9,10,10,11,11,12,12,13,13,14,14],"right_children":[2,4,6,8,10,12,14,16,18,20,22,24,26,28,30,-1,-1,-1,-1,-1,-1,-1,-1,-1,-1,-1,-1,-1,-1,-1,-1],"split_conditions":[9.98E1,1E0,1E0,1E-1,1E0,2.5E1,1E0,1E0,6E0,3E0,9.95E1,1E0,1E0,6E0,5E0,-7.5895375E4,1.0577537E5,2.9143855E3,-1.8997875E5,-5.5337543E4,-2.848168E5,-4.2120914E4,-2.6646522E5,-2.0717148E4,2.3257081E5,-1.15393805E5,-3.243829E5,2.5358822E5,6.596394E4,2.027537E4,3.20629E5],"split_indices":[6,43,41,5,17,0,47,23,0,0,6,53,43,0,0,0,0,0,0,0,0,0,0,0,0,0,0,0,0,0,0],"split_type":[0,0,0,0,0,0,0,0,0,0,0,0,0,0,0,0,0,0,0,0,0,0,0,0,0,0,0,0,0,0,0],"sum_hessian":[1.162E3,3.8E2,7.82E2,2.57E2,1.23E2,2.45E2,5.37E2,1.09E2,1.48E2,1.07E2,1.6E1,1.5E2,9.5E1,4.32E2,1.05E2,8.4E1,2.5E1,9E0,1.39E2,4E0,1.03E2,1.4E1,2E0,1.39E2,1.1E1,8.8E1,7E0,8.3E1,3.49E2,1E1,9.5E1],"tree_param":{"num_deleted":"0","num_feature":"54","num_nodes":"31","size_leaf_vector":"1"}},{"base_weights":[3.358935E5,9.335391E6,-3.3212452E6,1.04744856E6,1.4746089E7,-1.1540459E7,-1.4393632E6,5.2287465E6,-1.7013939E6,1.1703315E7,1.791916E7,-1.247074E7,-8.286855E6,-6.7176495E6,1.841402E4,1.9484175E5,1.0862814E4,1.9043436E4,-1.773686E5,3.1180247E5,4.600208E5,6.276611E5,3.7452512E5,-3.7786144E5,-1.0607714E5,-2.5886964E5,6.044883E4,-1.434181E5,-2.6891403E5,2.2932542E5,-6.2596914E4],"categories":[],"categories_nodes":[],"categories_segments":[],"categories_sizes":[],"default_left":[0,0,0,0,0,0,0,0,0,0,0,0,0,0,0,0,0,0,0,0,0,0,0,0,0,0,0,0,0,0,0],"id":8,"left_children":[1,3,5,7,9,11,13,15,17,19,21,23,25,27,29,-1,-1,-1,-1,-1,-1,-1,-1,-1,-1,-1,-1,-1,-1,-1,-1],"loss_changes":[3.8044837E16,1.4962302E16,1.2697751E16,1.5375622E15,1.740587E15,3.597529E14,5.155482E15,3.2418534E14,8.0058096E14,3.4474843E14,1.3219029E15,8.576191E13,1.477968E14,5.880288E14,8.4593397E15,0E0,0E0,0E0,0E0,0E0,0E0,0E0,0E0,0E0,0E0,0E0,0E0,0E0,0E0,0E0,0E0],"parents":[2147483647,0,0,1,1,2,2,3,3,4,4,5,5,6,6,7,7,8,8,9,9,10,10,11,11,12,12,13,13,14,14],"right_children":[2,4,6,8,10,12,14,16,18,20,22,24,26,28,30,-1,-1,-1,-1,-1,-1,-1,-1,-1,-1,-1,-1,-1,-1,-1,-1],"split_conditions":[1.6E1,9.98E1,2E0,1E-1,1.056E2,1E0,9.95E1,1E0,1.2E1,1E0,1E1,1E0,1E0,2.4E1,2.3E1,1.9484175E5,1.0862814E4,1.9043436E4,-1.773686E5,3.1180247E5,4.600208E5,6.276611E5,3.7452512E5,-3.7786144E5,-1.0607714E5,-2.5886964E5,6.044883E4,-1.434181E5,-2.6891403E5,2.2932542E5,-6.2596914E4],"split_indices":[3,6,1,5,6,1,6,19,3,23,3,11,25,3,3,0,0,0,0,0,0,0,0,0,0,0,0,0,0,0,0],"split_type":[0,0,0,0,0,0,0,0,0,0,0,0,0,0,0,0,0,0,0,0,0,0,0,0,0,0,0,0,0,0,0],"sum_hessian":[1.154E3,3.33E2,8.21E2,1.32E2,2.01E2,1.52E2,6.69E2,5.2E1,8E1,1.05E2,9.6E1,1.16E2,3.6E1,1.44E2,5.25E2,4.1E1,1.1E1,5.2E1,2.8E1,8E1,2.5E1,6E1,3.6E1,1.14E2,2E0,3.5E1,1E0,7.9E1,6.5E1,1.13E2,4.12E2],"tree_param":{"num_deleted":"0","num_feature":"54","num_nodes":"31","size_leaf_vector":"1"}},{"base_weights":[-3.7320793E4,8.936283E6,-3.4481062E6,6.7866394E5,1.4030636E7,-1.0160166E7,-5.409242E5,-1.3559612E6,6.96338E6,1.6415751E7,1.0585651E7,-3.7280966E5,-7.7200015E6,3.717514E6,-2.2593778E6,1.2383187E5,-9.0381016E4,2.5360242E5,-6.5324277E4,3.4523994E5,5.735632E5,2.0639333E5,3.5189706E5,-2.6598397E5,-1.4678428E5,-1.3032276E5,2.368918E5,-2.4152037E4,-1.3400438E5],"categories":[],"categories_nodes":[],"categories_segments":[],"categories_sizes":[],"default_left":[0,0,0,0,0,0,0,0,0,0,0,0,0,0,0,0,0,0,0,0,0,0,0,0,0,0,0,0,0],"id":9,"left_children":[1,3,5,7,9,11,13,15,17,19,21,-1,23,25,27,-1,-1,-1,-1,-1,-1,-1,-1,-1,-1,-1,-1,-1,-1],"loss_changes":[3.5228907E16,1.3325789E16,1.6268498E16,1.5694612E15,1.4367009E15,1.297982E15,4.2747517E15,8.5734486E14,4.270129E14,1.2922762E15,2.7125832E14,0E0,3.5841985E14,5.693967E15,1.3318864E15,0E0,0E0,0E0,0E0,0E0,0E0,0E0,0E0,0E0,0E0,0E0,0E0,0E0,0E0],"parents":[2147483647,0,0,1,1,2,2,3,3,4,4,5,5,6,6,7,7,8,8,9,9,10,10,12,12,13,13,14,14],"right_children":[2,4,6,8,10,12,14,16,18,20,22,-1,24,26,28,-1,-1,-1,-1,-1,-1,-1,-1,-1,-1,-1,-1,-1,-1],"split_conditions":[1.6E1,9.98E1,6.5E1,8.5E1,1E1,4E1,2.3E1,1.3E1,1E0,7.5E1,7.5E1,-3.7280966E5,1E0,9.98E1,3.2E1,1.2383187E5,-9.0381016E4,2.5360242E5,-6.5324277E4,3.4523994E5,5.735632E5,2.0639333E5,3.5189706E5,-2.6598397E5,-1.4678428E5,-1.3032276E5,2.368918E5,-2.4152037E4,-1.3400438E5],"split_indices":[3,6,2,2,3,2,3,0,19,2,2,0,4,6,3,0,0,0,0,0,0,0,0,0,0,0,0,0,0],"split_type":[0,0,0,0,0,0,0,0,0,0,0,0,0,0,0,0,0,0,0,0,0,0,0,0,0,0,0,0,0],"sum_hessian":[1.149E3,3.16E2,8.33E2,1.21E2,1.95E2,2.51E2,5.82E2,9.2E1,2.9E1,1.13E2,8.2E1,1.28E2,1.23E2,1.67E2,4.15E2,2.1E1,7.1E1,2.5E1,4E0,4.2E1,7.1E1,2.1E1,6.1E1,8.6E1,3.7E1,5.7E1,1.1E2,2.51E2,1.64E2],"tree_param":{"num_deleted":"0","num_feature":"54","num_nodes":"29","size_leaf_vector":"1"}},{"base_weights":[2.2236964E5,9.365685E6,-3.1678682E6,-4.8924234E5,1.1082985E7,-9.776807E6,-3.7411684E5,-3.1257495E6,3.3581552E6,1.4768721E7,7.555025E6,-3.5748647E5,-7.3643635E6,2.5680565E6,-2.4710242E6,6.034398E4,-1.28394414E5,2.8141778E5,-1.8188395E4,3.7586578E5,5.551591E5,2.8182762E5,3.1621705E4,-2.5041661E5,-1.5175834E5,2.4057905E5,1.1198745E4,-1.0379164E5,1.0296198E5],"categories":[],"categories_nodes":[],"categories_segments":[],"categories_sizes":[],"default_left":[0,0,0,0,0,0,0,0,0,0,0,0,0,0,0,0,0,0,0,0,0,0,0,0,0,0,0,0,0],"id":10,"left_children":[1,3,5,7,9,11,13,15,17,19,21,-1,23,25,27,-1,-1,-1,-1,-1,-1,-1,-1,-1,-1,-1,-1,-1,-1],"loss_changes":[3.6328345E16,5.3702854E15,1.5782837E16,4.9739392E14,3.399269E15,1.2231895E15,3.7203638E15,1.8054033E14,4.8319852E14,8.645447E14,1.6640454E15,0E0,2.3425396E14,3.0000218E15,2.0662759E15,0E0,0E0,0E0,0E0,0E0,0E0,0E0,0E0,0E0,0E0,0E0,0E0,0E0,0E0],"parents":[2147483647,0,0,1,1,2,2,3,3,4,4,5,5,6,6,7,7,8,8,9,9,10,10,12,12,13,13,14,14],"right_children":[2,4,6,8,10,12,14,16,18,20,22,-1,24,26,28,-1,-1,-1,-1,-1,-1,-1,-1,-1,-1,-1,-1,-1,-1],"split_conditions":[1.6E1,1E0,6.5E1,7.5E1,1.4E1,4E1,1.1E1,1E1,2.3E1,2.5E-1,1E0,-3.5748647E5,1E0,2.4E1,9E1,6.034398E4,-1.28394414E5,2.8141778E5,-1.8188395E4,3.7586578E5,5.551591E5,2.8182762E5,3.1621705E4,-2.5041661E5,-1.5175834E5,2.4057905E5,1.1198745E4,-1.0379164E5,1.0296198E5],"split_indices":[3,41,2,2,0,2,0,0,0,5,19,0,4,3,2,0,0,0,0,0,0,0,0,0,0,0,0,0,0],"split_type":[0,0,0,0,0,0,0,0,0,0,0,0,0,0,0,0,0,0,0,0,0,0,0,0,0,0,0,0,0],"sum_hessian":[1.17E3,3.16E2,8.54E2,4.7E1,2.69E2,2.53E2,6.01E2,2.8E1,1.9E1,1.3E2,1.39E2,1.32E2,1.21E2,2.5E2,3.51E2,5E0,2.3E1,7E0,1.2E1,8.4E1,4.6E1,1.08E2,3.1E1,8.3E1,3.8E1,7.1E1,1.79E2,3.01E2,5E1],"tree_param":{"num_deleted":"0","num_feature":"54","num_nodes":"29","size_leaf_vector":"1"}},{"base_weights":[-9.2713805E4,9.818767E6,-2.9384825E6,1.4252787E7,6.1732565E6,-9.681343E6,-2.9458228E5,3.1256008E6,1.5151112E7,9.33182E6,2.7497985E6,-3.5390088E5,-7.728115E6,2.0273378E6,-3.4819488E6,1.8018084E5,3.099384E4,3.8599384E5,5.6589825E5,1.3440038E5,3.2693906E5,1.4393014E5,-6.088346E4,-2.3379411E5,1.5747897E4,1.8932316E5,-2.5115307E4,7.781891E3,-1.5791928E5],"categories":[],"categories_nodes":[],"categories_segments":[],"categories_sizes":[],"default_left":[0,0,0,0,0,0,0,0,0,0,0,0,0,0,0,0,0,0,0,0,0,0,0,0,0,0,0,0,0],"id":11,"left_children":[1,3,5,7,9,11,13,15,17,19,21,-1,23,25,27,-1,-1,-1,-1,-1,-1,-1,-1,-1,-1,-1,-1,-1,-1],"loss_changes":[3.3001414E16,4.1308888E15,1.6202302E16,1.12215255E15,1.542254E15,9.6656736E14,4.847189E15,5.406717E13,6.732447E14,5.2107617E14,7.046342E14,0E0,7.707265E13,4.655599E15,1.8415072E15,0E0,0E0,0E0,0E0,0E0,0E0,0E0,0E0,0E0,0E0,0E0,0E0,0E0,0E0],"parents":[2147483647,0,0,1,1,2,2,3,3,4,4,5,5,6,6,7,7,8,8,9,9,10,10,12,12,13,13,14,14],"right_children":[2,4,6,8,10,12,14,16,18,20,22,-1,24,26,28,-1,-1,-1,-1,-1,-1,-1,-1,-1,-1,-1,-1,-1,-1],"split_conditions":[1.4E1,1.2E1,6.5E1,1E0,0E0,3E1,2.7E1,8E0,2.5E-1,7E1,1E0,-3.5390088E5,1E0,1.2E1,8E0,1.8018084E5,3.099384E4,3.8599384E5,5.6589825E5,1.3440038E5,3.2693906E5,1.4393014E5,-6.088346E4,-2.3379411E5,1.5747897E4,1.8932316E5,-2.5115307E4,7.781891E3,-1.5791928E5],"split_indices":[3,0,2,41,5,2,3,3,5,2,19,0,24,0,0,0,0,0,0,0,0,0,0,0,0,0,0,0,0],"split_type":[0,0,0,0,0,0,0,0,0,0,0,0,0,0,0,0,0,0,0,0,0,0,0,0,0,0,0,0,0],"sum_hessian":[1.168E3,2.6E2,9.08E2,1.16E2,1.44E2,2.55E2,6.53E2,9E0,1.07E2,7.4E1,7E1,1.2E2,1.35E2,3.78E2,2.75E2,3E0,6E0,6.9E1,3.8E1,1.9E1,5.5E1,4.9E1,2.1E1,1.34E2,1E0,1.51E2,2.27E2,8.9E1,1.86E2],"tree_param":{"num_deleted":"0","num_feature":"54","num_nodes":"29","size_leaf_vector":"1"}},{"base_weights":[-6.4194277E4,-6.0403145E6,3.5830242E6,-1.0591285E7,-3.170138E6,-2.525559E6,4.783128E6,-3.4259834E5,-7.8834255E6,-6.7269835E6,-1.8228946E6,-5.335569E6,6.6713444E5,3.6035478E6,1.1081662E7,-2.4529561E5,7.0795016E4,-2.2393184E5,-5.072912E4,-8.7518414E4,1.1709758E5,2.8954459E4,-1.7630144E5,1.917659E5,-1.544582E4,1.493041E5,-2.9658557E4,2.0415923E5,3.841597E5],"categories":[],"categories_nodes":[],"categories_segments":[],"categories_sizes":[],"default_left":[0,0,0,0,0,0,0,0,0,0,0,0,0,0,0,0,0,0,0,0,0,0,0,0,0,0,0,0,0],"id":12,"left_children":[1,3,5,7,9,11,13,-1,15,17,19,21,23,25,27,-1,-1,-1,-1,-1,-1,-1,-1,-1,-1,-1,-1,-1,-1],"loss_changes":[2.5937342E16,5.857425E15,5.429641E15,3.004115E14,1.3198958E15,1.0980827E15,4.5515766E15,0E0,1.513941E14,2.6961255E14,1.2835095E15,2.2729611E14,3.9577684E14,3.2967643E15,6.278405E14,0E0,0E0,0E0,0E0,0E0,0E0,0E0,0E0,0E0,0E0,0E0,0E0,0E0,0E0],"parents":[2147483647,0,0,1,1,2,2,3,3,4,4,5,5,6,6,8,8,9,9,10,10,11,11,12,12,13,13,14,14],"right_children":[2,4,6,8,10,12,14,-1,16,18,20,22,24,26,28,-1,-1,-1,-1,-1,-1,-1,-1,-1,-1,-1,-1,-1,-1],"split_conditions":[7E1,5.5E1,9.9E1,3E1,9.83E1,8E1,1E0,-3.4259834E5,1E0,1E0,1E0,5E0,7E0,1E0,1.023E2,-2.4529561E5,7.0795016E4,-2.2393184E5,-5.072912E4,-8.7518414E4,1.1709758E5,2.8954459E4,-1.7630144E5,1.917659E5,-1.544582E4,1.493041E5,-2.9658557E4,2.0415923E5,3.841597E5],"split_indices":[2,2,6,2,6,2,23,0,25,43,47,0,0,42,6,0,0,0,0,0,0,0,0,0,0,0,0,0,0],"split_type":[0,0,0,0,0,0,0,0,0,0,0,0,0,0,0,0,0,0,0,0,0,0,0,0,0,0,0,0,0],"sum_hessian":[1.188E3,4.5E2,7.38E2,1.73E2,2.77E2,1.21E2,6.17E2,1.3E2,4.3E1,7.5E1,2.02E2,6.4E1,5.7E1,5.21E2,9.6E1,4.2E1,1E0,6.5E1,1E1,1.7E2,3.2E1,5E0,5.9E1,9E0,4.8E1,4.01E2,1.2E2,2.9E1,6.7E1],"tree_param":{"num_deleted":"0","num_feature":"54","num_nodes":"29","size_leaf_vector":"1"}},{"base_weights":[2.1783623E4,8.720386E6,-2.5773865E6,1.3910351E6,1.3408108E7,-8.929625E6,-1.4358217E5,-1.5020172E6,5.0386425E6,1.0550047E7,1.6611685E7,-3.333491E5,-6.9547065E6,3.6646222E6,-2.038784E6,6.005974E4,-9.4044914E4,1.924657E5,-5.2774194E3,2.8060912E5,4.3774534E5,3.6023888E5,5.699197E5,-2.3593439E5,-1.3204464E5,-1.1196233E5,2.2469577E5,7.499959E4,-9.1295516E4],"categories":[],"categories_nodes":[],"categories_segments":[],"categories_sizes":[],"default_left":[0,0,0,0,0,0,0,0,0,0,0,0,0,0,0,0,0,0,0,0,0,0,0,0,0,0,0,0,0],"id":13,"left_children":[1,3,5,7,9,11,13,15,17,19,21,-1,23,25,27,-1,-1,-1,-1,-1,-1,-1,-1,-1,-1,-1,-1,-1,-1],"loss_changes":[2.6927362E16,9.39543E15,1.4175634E16,1.1472619E15,1.3538016E15,1.0172823E15,4.799769E15,3.552808E14,3.4576017E14,3.0352427E14,6.175562E14,0E0,2.8129244E14,6.2809553E15,2.0316892E15,0E0,0E0,0E0,0E0,0E0,0E0,0E0,0E0,0E0,0E0,0E0,0E0,0E0,0E0],"parents":[2147483647,0,0,1,1,2,2,3,3,4,4,5,5,6,6,7,7,8,8,9,9,10,10,12,12,13,13,14,14],"right_children":[2,4,6,8,10,12,14,16,18,20,22,-1,24,26,28,-1,-1,-1,-1,-1,-1,-1,-1,-1,-1,-1,-1,-1,-1],"split_conditions":[1.4E1,9.95E1,6.5E1,8E1,1.056E2,3E1,2.3E1,1E-1,1E0,1E0,7.5E1,-3.333491E5,1E0,9.95E1,6E0,6.005974E4,-9.4044914E4,1.924657E5,-5.2774194E3,2.8060912E5,4.3774534E5,3.6023888E5,5.699197E5,-2.3593439E5,-1.3204464E5,-1.1196233E5,2.2469577E5,7.499959E4,-9.1295516E4],"split_indices":[3,6,2,2,6,2,3,5,19,53,2,0,4,6,0,0,0,0,0,0,0,0,0,0,0,0,0,0,0],"split_type":[0,0,0,0,0,0,0,0,0,0,0,0,0,0,0,0,0,0,0,0,0,0,0,0,0,0,0,0,0],"sum_hessian":[1.189E3,2.73E2,9.16E2,1.07E2,1.66E2,2.53E2,6.63E2,6E1,4.7E1,9E1,7.6E1,1.18E2,1.35E2,2.2E2,4.43E2,1.9E1,4.1E1,3.7E1,1E1,7.2E1,1.8E1,2.8E1,4.8E1,9.8E1,3.7E1,7.5E1,1.45E2,8E1,3.63E2],"tree_param":{"num_deleted":"0","num_feature":"54","num_nodes":"29","size_leaf_vector":"1"}},{"base_weights":[5.6578766E4,8.335487E6,-3.0324885E6,1.0041211E7,-1.3727551E6,-8.672465E6,-6.263061E5,1.2642668E7,7.1468955E6,1.81042E6,-2.970974E6,-1.0380771E7,-6.491773E6,1.589013E6,-3.0617565E6,3.0140134E5,4.88216E5,-2.7826713E4,2.5538264E5,1.1679781E5,-3.058299E4,-4.6137844E4,-1.7091761E5,-3.148756E5,-1.8011272E5,-1.8125544E5,-3.0711766E5,-4.4658184E4,1.2730173E5,-1.0986865E5,5.6271293E4],"categories":[],"categories_nodes":[],"categories_segments":[],"categories_sizes":[],"default_left":[0,0,0,0,0,0,0,0,0,0,0,0,0,0,0,0,0,0,0,0,0,0,0,0,0,0,0,0,0,0,0],"id":14,"left_children":[1,3,5,7,9,11,13,15,17,19,21,23,25,27,29,-1,-1,-1,-1,-1,-1,-1,-1,-1,-1,-1,-1,-1,-1,-1,-1],"loss_changes":[3.0305014E16,5.3459694E15,1.1706178E16,1.9727085E15,2.5466183E14,8.937376E14,3.2744168E15,1.1844811E15,1.4636674E15,1.0416916E14,1.2016523E14,9.017284E12,1.3362932E14,2.604111E15,8.637845E14,0E0,0E0,0E0,0E0,0E0,0E0,0E0,0E0,0E0,0E0,0E0,0E0,0E0,0E0,0E0,0E0],"parents":[2147483647,0,0,1,1,2,2,3,3,4,4,5,5,6,6,7,7,8,8,9,9,10,10,11,11,12,12,13,13,14,14],"right_children":[2,4,6,8,10,12,14,16,18,20,22,24,26,28,30,-1,-1,-1,-1,-1,-1,-1,-1,-1,-1,-1,-1,-1,-1,-1,-1],"split_conditions":[1.6E1,1E0,6.5E1,9E0,1E-1,4.5E1,2.7E1,8E1,7E1,1E0,1E0,2E0,1E0,7.5E1,1E0,3.0140134E5,4.88216E5,-2.7826713E4,2.5538264E5,1.1679781E5,-3.058299E4,-4.6137844E4,-1.7091761E5,-3.148756E5,-1.8011272E5,-1.8125544E5,-3.0711766E5,-4.4658184E4,1.2730173E5,-1.0986865E5,5.6271293E4],"split_indices":[3,42,2,3,5,2,3,2,2,50,35,1,38,2,43,0,0,0,0,0,0,0,0,0,0,0,0,0,0,0,0],"split_type":[0,0,0,0,0,0,0,0,0,0,0,0,0,0,0,0,0,0,0,0,0,0,0,0,0,0,0,0,0,0,0],"sum_hessian":[1.183E3,3.21E2,8.62E2,2.73E2,4.8E1,2.57E2,6.05E2,1.42E2,1.31E2,1.6E1,3.2E1,1.42E2,1.15E2,3.17E2,2.88E2,8.5E1,5.7E1,1.9E1,1.12E2,9E0,7E0,2.2E1,1E1,1.37E2,5E0,1.05E2,1E1,1.47E2,1.7E2,2.57E2,3.1E1],"tree_param":{"num_deleted":"0","num_feature":"54","num_nodes":"31","size_leaf_vector":"1"}},{"base_weights":[9.492753E4,8.752702E6,-2.5044432E6,1.338974E6,1.2993675E7,-9.178023E6,-1.1394922E6,4.7541325E6,-1.1571576E6,1.0239185E7,1.6146603E7,-1.0615425E7,-7.751668E6,-5.7699325E6,1.6726327E5,1.8937036E5,6.273984E4,1.55051E5,-7.7479484E4,3.6235956E5,2.2361814E5,5.29352E5,3.2756403E5,-3.2133162E5,-5.5952773E4,-2.6100062E5,-7.2958438E3,-1.3346892E5,-2.3614142E5,1.9683988E5,-5.791464E4],"categories":[],"categories_nodes":[],"categories_segments":[],"categories_sizes":[],"default_left":[0,0,0,0,0,0,0,0,0,0,0,0,0,0,0,0,0,0,0,0,0,0,0,0,0,0,0,0,0,0,0],"id":15,"left_children":[1,3,5,7,9,11,13,15,17,19,21,23,25,27,29,-1,-1,-1,-1,-1,-1,-1,-1,-1,-1,-1,-1,-1,-1,-1,-1],"loss_changes":[2.621747E16,8.440343E15,8.151304E15,8.4944514E14,1.3197554E15,2.2935018E14,4.5088513E15,1.610659E14,5.363331E14,3.9156465E14,4.1836417E14,4.1108206E13,5.675391E14,4.202357E14,7.8191265E15,0E0,0E0,0E0,0E0,0E0,0E0,0E0,0E0,0E0,0E0,0E0,0E0,0E0,0E0,0E0,0E0],"parents":[2147483647,0,0,1,1,2,2,3,3,4,4,5,5,6,6,7,7,8,8,9,9,10,10,11,11,12,12,13,13,14,14],"right_children":[2,4,6,8,10,12,14,16,18,20,22,24,26,28,30,-1,-1,-1,-1,-1,-1,-1,-1,-1,-1,-1,-1,-1,-1,-1,-1],"split_conditions":[1.4E1,9.95E1,2E0,1E-1,1.056E2,9.98E1,9.95E1,1E0,7E0,1.7E1,1E1,4.2E1,1E0,2.4E1,2.3E1,1.8937036E5,6.273984E4,1.55051E5,-7.7479484E4,3.6235956E5,2.2361814E5,5.29352E5,3.2756403E5,-3.2133162E5,-5.5952773E4,-2.6100062E5,-7.2958438E3,-1.3346892E5,-2.3614142E5,1.9683988E5,-5.791464E4],"split_indices":[3,6,1,5,6,6,6,50,0,0,3,3,4,3,3,0,0,0,0,0,0,0,0,0,0,0,0,0,0,0,0],"split_type":[0,0,0,0,0,0,0,0,0,0,0,0,0,0,0,0,0,0,0,0,0,0,0,0,0,0,0,0,0,0,0],"sum_hessian":[1.163E3,2.68E2,8.95E2,9.8E1,1.7E2,1.51E2,7.44E2,4.1E1,5.7E1,9.3E1,7.7E1,7.2E1,7.9E1,1.63E2,5.81E2,2.5E1,1.6E1,1E1,4.7E1,5.4E1,3.9E1,5.8E1,1.9E1,7.1E1,1E0,7E1,9E0,1.02E2,6.1E1,1.43E2,4.38E2],"tree_param":{"num_deleted":"0","num_feature":"54","num_nodes":"31","size_leaf_vector":"1"}},{"base_weights":[-2.3351562E5,-5.6017865E6,3.1284548E6,-9.390383E6,-3.1917695E6,1.615134E6,6.6176105E6,-3.03754E5,-7.2201055E6,-3.9319232E6,3.0825708E6,6.3975325E5,6.662659E6,7.52843E6,2.220792E6,-2.2461198E5,7.9905945E4,-9.739279E4,-2.7131806E5,5.162723E4,1.983609E5,-5.6950984E4,5.9099434E4,2.2328123E5,-4.4493965E4,1.1974432E5,2.5137127E5,2.4652229E4,3.4709972E5],"categories":[],"categories_nodes":[],"categories_segments":[],"categories_sizes":[],"default_left":[0,0,0,0,0,0,0,0,0,0,0,0,0,0,0,0,0,0,0,0,0,0,0,0,0,0,0,0,0],"id":16,"left_children":[1,3,5,7,9,11,13,-1,15,17,19,21,23,25,27,-1,-1,-1,-1,-1,-1,-1,-1,-1,-1,-1,-1,-1,-1],"loss_changes":[2.127803E16,4.115312E15,3.8174652E15,2.0754678E14,1.3077896E15,2.4918294E15,8.60312E14,0E0,1.4659207E14,8.467072E14,1.32799315E14,1.4420339E15,5.320764E14,5.1110755E14,5.0061273E14,0E0,0E0,0E0,0E0,0E0,0E0,0E0,0E0,0E0,0E0,0E0,0E0,0E0,0E0],"parents":[2147483647,0,0,1,1,2,2,3,3,4,4,5,5,6,6,8,8,9,9,10,10,11,11,12,12,13,13,14,14],"right_children":[2,4,6,8,10,12,14,-1,16,18,20,22,24,26,28,-1,-1,-1,-1,-1,-1,-1,-1,-1,-1,-1,-1,-1,-1],"split_conditions":[7E1,5.5E1,8.5E1,3E1,1E0,1E0,1E0,-3.03754E5,1E0,1E0,1E0,1E0,1E0,1E0,1E0,-2.2461198E5,7.9905945E4,-9.739279E4,-2.7131806E5,5.162723E4,1.983609E5,-5.6950984E4,5.9099434E4,2.2328123E5,-4.4493965E4,1.1974432E5,2.5137127E5,2.4652229E4,3.4709972E5],"split_indices":[2,2,2,2,17,23,19,0,25,51,4,41,46,41,47,0,0,0,0,0,0,0,0,0,0,0,0,0,0],"split_type":[0,0,0,0,0,0,0,0,0,0,0,0,0,0,0,0,0,0,0,0,0,0,0,0,0,0,0,0,0],"sum_hessian":[1.177E3,4.53E2,7.24E2,1.75E2,2.78E2,5.06E2,2.18E2,1.28E2,4.7E1,2.49E2,2.9E1,4.25E2,8.1E1,1.8E2,3.8E1,4.6E1,1E0,2.21E2,2.8E1,2.2E1,7E0,1.46E2,2.79E2,7.4E1,7E0,3.6E1,1.44E2,3.4E1,4E0],"tree_param":{"num_deleted":"0","num_feature":"54","num_nodes":"29","size_leaf_vector":"1"}},{"base_weights":[-1.9516082E4,7.360715E6,-2.934596E6,1.7502516E4,1.1703011E7,-7.970132E6,-6.8090906E5,4.3342805E6,-2.2463872E6,9.177156E6,1.4391305E7,-9.575034E6,-5.9091325E6,7.8811556E5,-4.1414935E6,1.705755E5,6.4236598E4,1.5793786E5,-1.0452629E5,2.485231E5,4.072614E5,5.1623838E5,2.8251044E5,-2.9062512E5,-1.6120884E5,-1.4736688E5,-2.3478416E5,1.4051436E5,-4.201938E4,1.4370185E4,-1.807092E5],"categories":[],"categories_nodes":[],"categories_segments":[],"categories_sizes":[],"default_left":[0,0,0,0,0,0,0,0,0,0,0,0,0,0,0,0,0,0,0,0,0,0,0,0,0,0,0,0,0,0,0],"id":17,"left_children":[1,3,5,7,9,11,13,15,17,19,21,23,25,27,29,-1,-1,-1,-1,-1,-1,-1,-1,-1,-1,-1,-1,-1,-1,-1,-1],"loss_changes":[2.5149913E16,1.0554193E16,9.504635E15,1.2215525E15,1.2802997E15,8.0011375E14,2.9518006E15,1.1528048E14,7.807185E14,3.1960355E14,1.2250213E15,1.598909E13,1.8324022E14,3.4854747E15,1.5073722E15,0E0,0E0,0E0,0E0,0E0,0E0,0E0,0E0,0E0,0E0,0E0,0E0,0E0,0E0,0E0,0E0],"parents":[2147483647,0,0,1,1,2,2,3,3,4,4,5,5,6,6,7,7,8,8,9,9,10,10,11,11,12,12,13,13,14,14],"right_children":[2,4,6,8,10,12,14,16,18,20,22,24,26,28,30,-1,-1,-1,-1,-1,-1,-1,-1,-1,-1,-1,-1,-1,-1,-1,-1],"split_conditions":[1.6E1,9.95E1,6.5E1,1E-1,1.056E2,4.5E1,3.1E1,1E1,6E0,1E0,1E1,2E0,2.5E1,1.1E1,7E0,1.705755E5,6.4236598E4,1.5793786E5,-1.0452629E5,2.485231E5,4.072614E5,5.1623838E5,2.8251044E5,-2.9062512E5,-1.6120884E5,-1.4736688E5,-2.3478416E5,1.4051436E5,-4.201938E4,1.4370185E4,-1.807092E5],"split_indices":[3,6,2,5,6,2,3,3,0,53,3,1,0,0,0,0,0,0,0,0,0,0,0,0,0,0,0,0,0,0,0],"split_type":[0,0,0,0,0,0,0,0,0,0,0,0,0,0,0,0,0,0,0,0,0,0,0,0,0,0,0,0,0,0,0],"sum_hessian":[1.167E3,3.3E2,8.37E2,1.23E2,2.07E2,2.58E2,5.79E2,4.2E1,8.1E1,1.09E2,9.8E1,1.43E2,1.15E2,4.07E2,1.72E2,2.5E1,1.7E1,1.1E1,7E1,9.3E1,1.6E1,6.1E1,3.7E1,1.38E2,5E0,7.8E1,3.7E1,1.46E2,2.61E2,5E1,1.22E2],"tree_param":{"num_deleted":"0","num_feature":"54","num_nodes":"31","size_leaf_vector":"1"}},{"base_weights":[1.438106E4,7.191287E6,-2.6440535E6,3.5413916E5,1.1677445E7,-7.832653E6,-4.6307338E5,-2.202134E6,3.8335272E6,8.984148E6,1.4361322E7,-2.8729812E5,-6.0688485E6,-2.19842E6,2.5127542E6,8.581943E4,-1.0870731E5,1.8536275E5,2.3162988E4,3.2269128E5,1.973718E5,3.261439E5,5.3305125E5,-2.1292092E5,-1.0094757E5,8.237465E3,-1.1460582E5,1.5404242E5,-4.831505E4],"categories":[],"categories_nodes":[],"categories_segments":[],"categories_sizes":[],"default_left":[0,0,0,0,0,0,0,0,0,0,0,0,0,0,0,0,0,0,0,0,0,0,0,0,0,0,0,0,0],"id":18,"left_children":[1,3,5,7,9,11,13,15,17,19,21,-1,23,25,27,-1,-1,-1,-1,-1,-1,-1,-1,-1,-1,-1,-1,-1,-1],"loss_changes":[2.279974E16,9.903088E15,9.864127E15,1.1558023E15,1.2805316E15,7.354874E14,3.181441E15,5.5010005E14,3.901159E14,3.5546975E14,9.482837E14,0E0,3.4043307E14,1.5611923E15,2.4624006E15,0E0,0E0,0E0,0E0,0E0,0E0,0E0,0E0,0E0,0E0,0E0,0E0,0E0,0E0],"parents":[2147483647,0,0,1,1,2,2,3,3,4,4,5,5,6,6,7,7,8,8,9,9,10,10,12,12,13,13,14,14],"right_children":[2,4,6,8,10,12,14,16,18,20,22,-1,24,26,28,-1,-1,-1,-1,-1,-1,-1,-1,-1,-1,-1,-1,-1,-1],"split_conditions":[1.6E1,9.98E1,6.5E1,8E1,1.056E2,3E1,8E1,1.3E1,1E0,1.7E1,8E1,-2.8729812E5,1E0,1.1E1,2.9E1,8.581943E4,-1.0870731E5,1.8536275E5,2.3162988E4,3.2269128E5,1.973718E5,3.261439E5,5.3305125E5,-2.1292092E5,-1.0094757E5,8.237465E3,-1.1460582E5,1.5404242E5,-4.831505E4],"split_indices":[3,6,2,2,6,2,2,0,50,0,2,0,4,0,3,0,0,0,0,0,0,0,0,0,0,0,0,0,0],"split_type":[0,0,0,0,0,0,0,0,0,0,0,0,0,0,0,0,0,0,0,0,0,0,0,0,0,0,0,0,0],"sum_hessian":[1.193E3,3.22E2,8.71E2,1.28E2,1.94E2,2.57E2,6.14E2,7.4E1,5.4E1,9.9E1,9.5E1,1.27E2,1.3E2,3.88E2,2.26E2,1.6E1,5.8E1,3E1,2.4E1,5.5E1,4.4E1,4.9E1,4.6E1,9.3E1,3.7E1,1.54E2,2.34E2,1.38E2,8.8E1],"tree_param":{"num_deleted":"0","num_feature":"54","num_nodes":"29","size_leaf_vector":"1"}},{"base_weights":[1.4344533E5,5.933844E6,-2.8455748E6,-6.9203075E5,1.0418961E7,-7.412024E6,-8.615105E5,-3.1781285E6,3.3690645E6,1.309337E7,7.896549E6,-2.7660103E5,-6.0413975E6,-1.9332044E6,3.2978578E6,4.0845402E4,-1.4068039E5,1.4186978E5,-2.508876E4,2.9817012E5,4.82201E5,1.149137E5,2.7420772E5,-1.5057347E5,-2.1541762E5,-1.9075519E5,-3.5952082E4,1.7532372E5,-3.5758957E4],"categories":[],"categories_nodes":[],"categories_segments":[],"categories_sizes":[],"default_left":[0,0,0,0,0,0,0,0,0,0,0,0,0,0,0,0,0,0,0,0,0,0,0,0,0,0,0,0,0],"id":19,"left_children":[1,3,5,7,9,11,13,15,17,19,21,-1,23,25,27,-1,-1,-1,-1,-1,-1,-1,-1,-1,-1,-1,-1,-1,-1],"loss_changes":[2.0284106E16,1.1864621E16,6.9970934E15,1.6463046E15,1.5021476E15,5.2417606E14,2.413463E15,6.9928376E14,3.585318E14,9.118452E14,5.971175E14,0E0,1.2234161E14,1.3906195E15,1.2759496E15,0E0,0E0,0E0,0E0,0E0,0E0,0E0,0E0,0E0,0E0,0E0,0E0,0E0,0E0],"parents":[2147483647,0,0,1,1,2,2,3,3,4,4,5,5,6,6,7,7,8,8,9,9,10,10,12,12,13,13,14,14],"right_children":[2,4,6,8,10,12,14,16,18,20,22,-1,24,26,28,-1,-1,-1,-1,-1,-1,-1,-1,-1,-1,-1,-1,-1,-1],"split_conditions":[1.8E1,9.98E1,6.5E1,8E1,1E1,3E1,8.5E1,1E-1,1.4E1,1.056E2,7.5E1,-2.7660103E5,0E0,9.9E1,2.9E1,4.0845402E4,-1.4068039E5,1.4186978E5,-2.508876E4,2.9817012E5,4.82201E5,1.149137E5,2.7420772E5,-1.5057347E5,-2.1541762E5,-1.9075519E5,-3.5952082E4,1.7532372E5,-3.5758957E4],"split_indices":[3,6,2,2,3,2,2,5,3,6,2,0,5,6,3,0,0,0,0,0,0,0,0,0,0,0,0,0,0],"split_type":[0,0,0,0,0,0,0,0,0,0,0,0,0,0,0,0,0,0,0,0,0,0,0,0,0,0,0,0,0],"sum_hessian":[1.17E3,3.98E2,7.72E2,1.61E2,2.37E2,2.33E2,5.39E2,1E2,6.1E1,1.13E2,1.24E2,9.8E1,1.35E2,4.29E2,1.1E2,2.5E1,7.5E1,4.6E1,1.5E1,5.7E1,5.6E1,3E1,9.4E1,7.4E1,6.1E1,6E1,3.69E2,7E1,4E1],"tree_param":{"num_deleted":"0","num_feature":"54","num_nodes":"29","size_leaf_vector":"1"}},{"base_weights":[1.2171287E5,7.7819165E6,-2.2062662E6,2.294229E4,1.0961698E7,-7.5078415E6,-5.5700473E4,-2.0662528E6,2.2809115E6,8.555028E6,1.4091767E7,-8.880971E6,-5.65389E6,1.984665E6,-2.6460682E6,-1.0134858E5,5.0995824E4,1.7620347E5,2.7067925E3,2.2602869E5,3.518586E5,2.6435147E5,4.968701E5,-2.73157E5,-2.0602736E5,-2.0532181E5,-1.1382705E5,-1.02772516E5,1.3180919E5,-6.2878742E4,-2.6971225E5],"categories":[],"categories_nodes":[],"categories_segments":[],"categories_sizes":[],"default_left":[0,0,0,0,0,0,0,0,0,0,0,0,0,0,0,0,0,0,0,0,0,0,0,0,0,0,0,0,0,0,0],"id":20,"left_children":[1,3,5,7,9,11,13,15,17,19,21,23,25,27,29,-1,-1,-1,-1,-1,-1,-1,-1,-1,-1,-1,-1,-1,-1,-1,-1],"loss_changes":[1.9740237E16,6.3650857E15,9.67936E15,3.6323062E14,1.2579916E15,5.7348766E14,3.2028562E15,2.033933E14,2.9066446E14,2.5500993E14,8.715466E14,2.3192823E11,2.1085578E14,4.4334258E15,9.1300965E14,0E0,0E0,0E0,0E0,0E0,0E0,0E0,0E0,0E0,0E0,0E0,0E0,0E0,0E0,0E0,0E0],"parents":[2147483647,0,0,1,1,2,2,3,3,4,4,5,5,6,6,7,7,8,8,9,9,10,10,11,11,12,12,13,13,14,14],"right_children":[2,4,6,8,10,12,14,16,18,20,22,24,26,28,30,-1,-1,-1,-1,-1,-1,-1,-1,-1,-1,-1,-1,-1,-1,-1,-1],"split_conditions":[1.4E1,9.9E1,6.5E1,7.5E1,1.056E2,4.5E1,2.7E1,1E0,7E0,1E0,7.5E1,1E0,1E0,9.98E1,1E0,-1.0134858E5,5.0995824E4,1.7620347E5,2.7067925E3,2.2602869E5,3.518586E5,2.6435147E5,4.968701E5,-2.73157E5,-2.0602736E5,-2.0532181E5,-1.1382705E5,-1.02772516E5,1.3180919E5,-6.2878742E4,-2.6971225E5],"split_indices":[3,6,2,2,6,2,3,43,3,53,2,4,42,6,49,0,0,0,0,0,0,0,0,0,0,0,0,0,0,0,0],"split_type":[0,0,0,0,0,0,0,0,0,0,0,0,0,0,0,0,0,0,0,0,0,0,0,0,0,0,0,0,0,0,0],"sum_hessian":[1.105E3,2.57E2,8.48E2,7.5E1,1.82E2,2.44E2,6.04E2,3.9E1,3.6E1,1.05E2,7.7E1,1.38E2,1.06E2,3.38E2,2.66E2,2.9E1,1E1,1.3E1,2.3E1,8.2E1,2.3E1,2.6E1,5.1E1,1.21E2,1.7E1,6.3E1,4.3E1,1.04E2,2.34E2,2.46E2,2E1],"tree_param":{"num_deleted":"0","num_feature":"54","num_nodes":"31","size_leaf_vector":"1"}},{"base_weights":[-2.6185642E3,7.7010485E6,-2.2552505E6,1.4146428E6,1.1152061E7,-7.862815E6,-1.0069013E6,4.3012895E6,-4.5122916E5,8.74944E6,1.3842947E7,-8.915713E6,-6.658987E6,-5.3285835E6,1.0294361E5,1.8426175E5,-1.3645198E3,9.571392E4,-5.047381E4,2.2813447E5,3.910204E5,4.2868297E5,-6.247056E4,-2.6958644E5,-4.596186E4,2.0241167E5,-2.0742269E5,-1.2185356E5,-2.3124058E5,1.5585172E5,-5.2340016E4],"categories":[],"categories_nodes":[],"categories_segments":[],"categories_sizes":[],"default_left":[0,0,0,0,0,0,0,0,0,0,0,0,0,0,0,0,0,0,0,0,0,0,0,0,0,0,0,0,0,0,0],"id":21,"left_children":[1,3,5,7,9,11,13,15,17,19,21,23,25,27,29,-1,-1,-1,-1,-1,-1,-1,-1,-1,-1,-1,-1,-1,-1,-1,-1],"loss_changes":[2.0095398E16,5.6681725E15,6.264261E15,5.082355E14,9.71498E14,1.472347E14,3.5211038E15,2.9633147E14,2.654263E14,3.5220342E14,5.8436896E14,2.9959544E13,3.202427E14,4.208311E14,5.512887E15,0E0,0E0,0E0,0E0,0E0,0E0,0E0,0E0,0E0,0E0,0E0,0E0,0E0,0E0,0E0,0E0],"parents":[2147483647,0,0,1,1,2,2,3,3,4,4,5,5,6,6,7,7,8,8,9,9,10,10,11,11,12,12,13,13,14,14],"right_children":[2,4,6,8,10,12,14,16,18,20,22,24,26,28,30,-1,-1,-1,-1,-1,-1,-1,-1,-1,-1,-1,-1,-1,-1,-1,-1],"split_conditions":[1.4E1,9.95E1,2E0,8E0,1.056E2,9.98E1,9.91E1,1E0,0E0,1E0,1E0,4.2E1,2.1E1,2.5E1,2.3E1,1.8426175E5,-1.3645198E3,9.571392E4,-5.047381E4,2.2813447E5,3.910204E5,4.2868297E5,-6.247056E4,-2.6958644E5,-4.596186E4,2.0241167E5,-2.0742269E5,-1.2185356E5,-2.3124058E5,1.5585172E5,-5.2340016E4],"split_indices":[3,6,1,3,6,6,6,19,5,23,27,3,3,3,3,0,0,0,0,0,0,0,0,0,0,0,0,0,0,0,0],"split_type":[0,0,0,0,0,0,0,0,0,0,0,0,0,0,0,0,0,0,0,0,0,0,0,0,0,0,0,0,0,0,0],"sum_hessian":[1.156E3,2.61E2,8.95E2,9.3E1,1.68E2,1.62E2,7.33E2,3.6E1,5.7E1,9.1E1,7.7E1,8.3E1,7.9E1,1.49E2,5.84E2,2.5E1,1.1E1,1.4E1,4.3E1,7.4E1,1.7E1,7.5E1,2E0,8.2E1,1E0,1E0,7.8E1,9.9E1,5E1,1.55E2,4.29E2],"tree_param":{"num_deleted":"0","num_feature":"54","num_nodes":"31","size_leaf_vector":"1"}},{"base_weights":[-6.0748926E4,7.3808985E6,-2.1845332E6,1.2608169E6,1.089694E7,-6.994893E6,-2.213858E5,-1.1963161E6,4.3171975E6,8.698174E6,1.3830033E7,-2.51257E5,-5.4399185E6,-1.3086516E6,3.7694558E6,7.519937E4,-8.4642664E4,1.8221783E5,4.6195633E4,3.1363547E5,1.629524E5,3.044612E5,5.0768022E5,-1.8952389E5,-9.138585E4,-1.7022558E5,-1.4859219E4,1.4450014E5,-1.77742E5],"categories":[],"categories_nodes":[],"categories_segments":[],"categories_sizes":[],"default_left":[0,0,0,0,0,0,0,0,0,0,0,0,0,0,0,0,0,0,0,0,0,0,0,0,0,0,0,0,0],"id":22,"left_children":[1,3,5,7,9,11,13,15,17,19,21,-1,23,25,27,-1,-1,-1,-1,-1,-1,-1,-1,-1,-1,-1,-1,-1,-1],"loss_changes":[1.8507334E16,5.581061E15,8.60143E15,7.261184E14,9.4381906E14,5.2108798E14,2.8166734E15,3.320284E14,2.0044586E14,4.996985E14,6.138228E14,0E0,2.4753212E14,1.8080376E15,1.4396526E15,0E0,0E0,0E0,0E0,0E0,0E0,0E0,0E0,0E0,0E0,0E0,0E0,0E0,0E0],"parents":[2147483647,0,0,1,1,2,2,3,3,4,4,5,5,6,6,7,7,8,8,9,9,10,10,12,12,13,13,14,14],"right_children":[2,4,6,8,10,12,14,16,18,20,22,-1,24,26,28,-1,-1,-1,-1,-1,-1,-1,-1,-1,-1,-1,-1,-1,-1],"split_conditions":[1.4E1,9.95E1,6.5E1,8E1,8E1,4E1,8.5E1,1E-1,1E1,1.7E1,1.056E2,-2.51257E5,1E0,9.9E1,4E1,7.519937E4,-8.4642664E4,1.8221783E5,4.6195633E4,3.1363547E5,1.629524E5,3.044612E5,5.0768022E5,-1.8952389E5,-9.138585E4,-1.7022558E5,-1.4859219E4,1.4450014E5,-1.77742E5],"split_indices":[3,6,2,2,2,2,2,5,3,0,6,0,4,6,3,0,0,0,0,0,0,0,0,0,0,0,0,0,0],"split_type":[0,0,0,0,0,0,0,0,0,0,0,0,0,0,0,0,0,0,0,0,0,0,0,0,0,0,0,0,0],"sum_hessian":[1.169E3,2.59E2,9.1E2,9.5E1,1.64E2,2.63E2,6.47E2,5.3E1,4.2E1,9.6E1,6.8E1,1.37E2,1.26E2,5.09E2,1.38E2,1.6E1,3.7E1,2.5E1,1.7E1,6.1E1,3.5E1,3.3E1,3.5E1,9.1E1,3.5E1,7.9E1,4.3E2,1.25E2,1.3E1],"tree_param":{"num_deleted":"0","num_feature":"54","num_nodes":"29","size_leaf_vector":"1"}},{"base_weights":[1.364883E5,7.201224E6,-2.0238912E6,1.2315012E6,1.0705581E7,-6.0839255E6,-6.346172E5,-2.0457603E5,4.334436E6,1.2683311E7,6.8683555E6,-2.544239E5,-4.9694065E6,5.9723485E6,-2.576598E6,7.116435E4,-5.936609E4,1.6473414E5,-9.0299516E4,3.893386E5,-6.7493875E4,2.1614519E5,1.0690724E4,-1.2140354E5,-2.5677342E5,9.2451125E4,2.298495E5,-5.766074E4,-2.085291E5],"categories":[],"categories_nodes":[],"categories_segments":[],"categories_sizes":[],"default_left":[0,0,0,0,0,0,0,0,0,0,0,0,0,0,0,0,0,0,0,0,0,0,0,0,0,0,0,0,0],"id":23,"left_children":[1,3,5,7,9,11,13,15,17,19,21,-1,23,25,27,-1,-1,-1,-1,-1,-1,-1,-1,-1,-1,-1,-1,-1,-1],"loss_changes":[1.7596987E16,5.635227E15,4.9767005E15,4.5094815E14,1.203016E15,5.5891107E14,8.470754E15,3.247244E14,2.88378E14,5.175908E14,1.2890378E14,0E0,4.8202606E14,7.0886395E14,1.4469471E15,0E0,0E0,0E0,0E0,0E0,0E0,0E0,0E0,0E0,0E0,0E0,0E0,0E0,0E0],"parents":[2147483647,0,0,1,1,2,2,3,3,4,4,5,5,6,6,7,7,8,8,9,9,10,10,12,12,13,13,14,14],"right_children":[2,4,6,8,10,12,14,16,18,20,22,-1,24,26,28,-1,-1,-1,-1,-1,-1,-1,-1,-1,-1,-1,-1,-1,-1],"split_conditions":[1.4E1,9.98E1,9.95E1,1E0,1.9E1,2E0,2.3E1,1E-1,1E0,1E0,1E0,-2.544239E5,3E1,1.023E2,4.3E1,7.116435E4,-5.936609E4,1.6473414E5,-9.0299516E4,3.893386E5,-6.7493875E4,2.1614519E5,1.0690724E4,-1.2140354E5,-2.5677342E5,9.2451125E4,2.298495E5,-5.766074E4,-2.085291E5],"split_indices":[3,6,6,23,0,1,3,5,50,27,51,0,3,6,3,0,0,0,0,0,0,0,0,0,0,0,0,0,0],"split_type":[0,0,0,0,0,0,0,0,0,0,0,0,0,0,0,0,0,0,0,0,0,0,0,0,0,0,0,0,0],"sum_hessian":[1.151E3,2.69E2,8.82E2,1E2,1.69E2,2.24E2,6.58E2,6.9E1,3.1E1,1.1E2,5.9E1,6.9E1,1.55E2,1.49E2,5.09E2,2.8E1,4.1E1,2.7E1,4E0,1.08E2,2E0,5.6E1,3E0,1.25E2,3E1,5.6E1,9.3E1,4.44E2,6.5E1],"tree_param":{"num_deleted":"0","num_feature":"54","num_nodes":"29","size_leaf_vector":"1"}},{"base_weights":[2.3392415E3,-6.811655E6,1.2507555E6,-7.4425455E6,-4.4332475E6,-3.0785268E6,2.3273318E6,-7.601741E6,2.3613E6,-2.5058927E5,-3.0258108E6,-3.71853E6,-4.655374E4,4.42827E6,2.8389088E5,-2.3333462E5,-1.5931114E5,1.5053975E5,-4.4281258E4,-1.04804336E5,7.510728E4,-1.3008178E5,-3.2808387E4,5.394486E4,-5.6660492E4,1.6468877E5,5.823419E4,-2.0232676E4,1.4833342E5],"categories":[],"categories_nodes":[],"categories_segments":[],"categories_sizes":[],"default_left":[0,0,0,0,0,0,0,0,0,0,0,0,0,0,0,0,0,0,0,0,0,0,0,0,0,0,0,0,0],"id":24,"left_children":[1,3,5,7,9,11,13,15,17,-1,19,21,23,25,27,-1,-1,-1,-1,-1,-1,-1,-1,-1,-1,-1,-1,-1,-1],"loss_changes":[9.833759E15,2.3559721E14,4.560769E15,2.3645245E14,1.9539625E14,3.7821898E14,3.3602737E15,1.4374719E13,3.7990676E13,0E0,8.890948E13,2.5623305E14,1.22333335E14,1.008279E15,1.7809117E15,0E0,0E0,0E0,0E0,0E0,0E0,0E0,0E0,0E0,0E0,0E0,0E0,0E0,0E0],"parents":[2147483647,0,0,1,1,2,2,3,3,4,4,5,5,6,6,7,7,8,8,10,10,11,11,12,12,13,13,14,14],"right_children":[2,4,6,8,10,12,14,16,18,-1,20,22,24,26,28,-1,-1,-1,-1,-1,-1,-1,-1,-1,-1,-1,-1,-1,-1],"split_conditions":[2E0,1E0,9.9E1,1E0,9.9E1,4E0,1.2E1,1E0,6E0,-2.5058927E5,1E0,1E0,1E0,1E0,1E0,-2.3333462E5,-1.5931114E5,1.5053975E5,-4.4281258E4,-1.04804336E5,7.510728E4,-1.3008178E5,-3.2808387E4,5.394486E4,-5.6660492E4,1.6468877E5,5.823419E4,-2.0232676E4,1.4833342E5],"split_indices":[1,1,6,8,6,1,0,4,0,0,17,23,19,42,53,0,0,0,0,0,0,0,0,0,0,0,0,0,0],"split_type":[0,0,0,0,0,0,0,0,0,0,0,0,0,0,0,0,0,0,0,0,0,0,0,0,0,0,0,0,0],"sum_hessian":[1.154E3,1.78E2,9.76E2,1.39E2,3.9E1,1.94E2,7.82E2,1.37E2,2E0,9E0,3E1,1.6E2,3.4E1,3.85E2,3.97E2,1.25E2,1.2E1,1E0,1E0,2.8E1,2E0,1.29E2,3.1E1,1.7E1,1.7E1,2.69E2,1.16E2,3.3E2,6.7E1],"tree_param":{"num_deleted":"0","num_feature":"54","num_nodes":"29","size_leaf_vector":"1"}},{"base_weights":[5.8225635E3,6.4041055E6,-2.3644742E6,2.2779753E5,9.701028E6,-6.8048595E6,-4.8077062E5,2.0866626E6,-2.5449082E6,4.142572E6,1.0737367E7,-2.3205803E5,-5.5365375E6,-1.549593E6,3.593151E6,8.666913E3,1.3297178E5,4.3598445E4,-1.118631E5,2.2132458E5,7.4618875E4,3.80339E5,2.061381E5,-2.0184922E5,-8.600355E4,2.1995074E4,-9.450435E4,1.3978914E5,-1.5586189E5],"categories":[],"categories_nodes":[],"categories_segments":[],"categories_sizes":[],"default_left":[0,0,0,0,0,0,0,0,0,0,0,0,0,0,0,0,0,0,0,0,0,0,0,0,0,0,0,0,0],"id":25,"left_children":[1,3,5,7,9,11,13,15,17,19,21,-1,23,25,27,-1,-1,-1,-1,-1,-1,-1,-1,-1,-1,-1,-1,-1,-1],"loss_changes":[1.7728832E16,6.4324394E15,7.131536E15,5.774139E14,1.1421714E15,2.5690884E14,2.618147E15,2.8126342E14,2.1841771E14,1.6370892E14,1.2108264E15,0E0,3.3388378E14,1.7414612E15,1.1958173E15,0E0,0E0,0E0,0E0,0E0,0E0,0E0,0E0,0E0,0E0,0E0,0E0,0E0,0E0],"parents":[2147483647,0,0,1,1,2,2,3,3,4,4,5,5,6,6,7,7,8,8,9,9,10,10,12,12,13,13,14,14],"right_children":[2,4,6,8,10,12,14,16,18,20,22,-1,24,26,28,-1,-1,-1,-1,-1,-1,-1,-1,-1,-1,-1,-1,-1,-1],"split_conditions":[1.6E1,9.95E1,6.5E1,1.1E1,7E1,4.5E1,8.5E1,8E1,0E0,9E0,1.2E1,-2.3205803E5,1E0,1.1E1,4E1,8.666913E3,1.3297178E5,4.3598445E4,-1.118631E5,2.2132458E5,7.4618875E4,3.80339E5,2.061381E5,-2.0184922E5,-8.600355E4,2.1995074E4,-9.450435E4,1.3978914E5,-1.5586189E5],"split_indices":[3,6,2,3,2,2,2,2,5,0,3,0,42,0,3,0,0,0,0,0,0,0,0,0,0,0,0,0,0],"split_type":[0,0,0,0,0,0,0,0,0,0,0,0,0,0,0,0,0,0,0,0,0,0,0,0,0,0,0,0,0],"sum_hessian":[1.167E3,3.15E2,8.52E2,1.1E2,2.05E2,2.53E2,5.99E2,6.6E1,4.4E1,3.3E1,1.72E2,1.43E2,1.1E2,4.75E2,1.24E2,3.8E1,2.8E1,1E1,3.4E1,1E1,2.3E1,1.13E2,5.9E1,7.5E1,3.5E1,1.96E2,2.79E2,1.11E2,1.3E1],"tree_param":{"num_deleted":"0","num_feature":"54","num_nodes":"29","size_leaf_vector":"1"}},{"base_weights":[5.5170746E4,6.84758E6,-2.0167654E6,1.3350736E6,9.976333E6,-6.5138825E6,-2.4415677E5,-6.0966744E5,3.8240548E6,7.834648E6,1.3199626E7,-2.3080512E5,-5.425816E6,-4.561169E6,7.047402E5,1.0247589E5,-5.9992316E4,1.5732789E5,2.1861023E4,2.9180894E5,1.4023402E5,2.7196288E5,4.7600784E5,-1.3635461E5,-2.2211281E5,-1.151145E5,-2.6539403E5,1.6590583E5,-3.514692E4],"categories":[],"categories_nodes":[],"categories_segments":[],"categories_sizes":[],"default_left":[0,0,0,0,0,0,0,0,0,0,0,0,0,0,0,0,0,0,0,0,0,0,0,0,0,0,0,0,0],"id":26,"left_children":[1,3,5,7,9,11,13,15,17,19,21,-1,23,25,27,-1,-1,-1,-1,-1,-1,-1,-1,-1,-1,-1,-1,-1,-1],"loss_changes":[1.6437512E16,4.6951863E15,7.133017E15,4.8637377E14,1.09775606E15,2.829836E14,2.6371996E15,3.257912E14,1.8960462E14,5.9439824E14,6.060059E14,0E0,2.0150537E14,3.259609E14,4.787002E15,0E0,0E0,0E0,0E0,0E0,0E0,0E0,0E0,0E0,0E0,0E0,0E0,0E0,0E0],"parents":[2147483647,0,0,1,1,2,2,3,3,4,4,5,5,6,6,7,7,8,8,9,9,10,10,12,12,13,13,14,14],"right_children":[2,4,6,8,10,12,14,16,18,20,22,-1,24,26,28,-1,-1,-1,-1,-1,-1,-1,-1,-1,-1,-1,-1,-1,-1],"split_conditions":[1.4E1,9.95E1,6.5E1,8E1,8E1,3E1,9.91E1,1.3E1,1E0,1.7E1,1.056E2,-2.3080512E5,2.4E1,3E1,2.3E1,1.0247589E5,-5.9992316E4,1.5732789E5,2.1861023E4,2.9180894E5,1.4023402E5,2.7196288E5,4.7600784E5,-1.3635461E5,-2.2211281E5,-1.151145E5,-2.6539403E5,1.6590583E5,-3.514692E4],"split_indices":[3,6,2,2,2,2,6,0,50,0,6,0,0,3,3,0,0,0,0,0,0,0,0,0,0,0,0,0,0],"split_type":[0,0,0,0,0,0,0,0,0,0,0,0,0,0,0,0,0,0,0,0,0,0,0,0,0,0,0,0,0],"sum_hessian":[1.166E3,2.72E2,8.94E2,9.9E1,1.73E2,2.52E2,6.42E2,5.6E1,4.3E1,1.06E2,6.7E1,1.18E2,1.34E2,1.15E2,5.27E2,1.4E1,4.2E1,2.9E1,1.4E1,6.5E1,4.1E1,2.8E1,3.9E1,9.5E1,3.9E1,1E2,1.5E1,1.47E2,3.8E2],"tree_param":{"num_deleted":"0","num_feature":"54","num_nodes":"29","size_leaf_vector":"1"}},{"base_weights":[3.2178353E5,-3.5351588E6,2.0462275E6,-2.206653E6,-4.563363E6,-5.848374E5,3.2671482E6,-2.7961692E6,2.0302935E6,-4.3729365E6,-7.214037E6,1.1561788E6,-2.4767995E6,3.6155245E6,-6.145599E6,-1.0288742E5,-4.008708E4,7.8804297E3,8.307236E4,-1.1657027E5,-1.5650211E5,1.0490391E5,-2.5516919E5,5.469149E4,-1.1627804E5,-5.3028875E4,-2.3615808E5,1.2363319E5,-9.7381664E4,-3.5673777E4,-1.903164E5],"categories":[],"categories_nodes":[],"categories_segments":[],"categories_sizes":[],"default_left":[0,0,0,0,0,0,0,0,0,0,0,0,0,0,0,0,0,0,0,0,0,0,0,0,0,0,0,0,0,0,0],"id":27,"left_children":[1,3,5,7,9,11,13,15,17,19,21,23,25,27,29,-1,-1,-1,-1,-1,-1,-1,-1,-1,-1,-1,-1,-1,-1,-1,-1],"loss_changes":[7.749092E15,4.8168085E14,2.5878297E15,4.0281914E14,7.0414915E13,8.461113E14,1.825767E15,1.2488067E14,2.5390328E13,5.8259352E13,1.957522E14,4.567392E14,4.5669186E14,1.8554635E15,1.2111875E13,0E0,0E0,0E0,0E0,0E0,0E0,0E0,0E0,0E0,0E0,0E0,0E0,0E0,0E0,0E0,0E0],"parents":[2147483647,0,0,1,1,2,2,3,3,4,4,5,5,6,6,7,7,8,8,9,9,10,10,11,11,12,12,13,13,14,14],"right_children":[2,4,6,8,10,12,14,16,18,20,22,24,26,28,30,-1,-1,-1,-1,-1,-1,-1,-1,-1,-1,-1,-1,-1,-1,-1,-1],"split_conditions":[9.98E1,1E-1,1E0,1E0,1E0,1.4E1,1E0,1E0,2E1,1E0,2.7E1,1E0,1E0,1E0,5E0,-1.0288742E5,-4.008708E4,7.8804297E3,8.307236E4,-1.1657027E5,-1.5650211E5,1.0490391E5,-2.5516919E5,5.469149E4,-1.1627804E5,-5.3028875E4,-2.3615808E5,1.2363319E5,-9.7381664E4,-3.5673777E4,-1.903164E5],"split_indices":[6,5,41,53,51,0,49,50,0,43,0,11,51,48,0,0,0,0,0,0,0,0,0,0,0,0,0,0,0,0,0],"split_type":[0,0,0,0,0,0,0,0,0,0,0,0,0,0,0,0,0,0,0,0,0,0,0,0,0,0,0,0,0,0,0],"sum_hessian":[1.163E3,3.59E2,8.04E2,1.58E2,2.01E2,2.55E2,5.49E2,1.39E2,1.9E1,1.9E2,1.1E1,1.33E2,1.22E2,5.3E2,1.9E1,9.6E1,4.3E1,6E0,1.3E1,1.24E2,6.6E1,1E0,1E1,1.18E2,1.5E1,1.09E2,1.3E1,4.94E2,3.6E1,1E0,1.8E1],"tree_param":{"num_deleted":"0","num_feature":"54","num_nodes":"31","size_leaf_vector":"1"}},{"base_weights":[7.2479055E4,-4.178238E6,2.5431818E6,-6.933665E6,-2.617341E6,1.1645474E6,5.750437E6,-7.0232845E6,9.8983875E4,-2.0901924E6,-7.7208745E6,4.711609E6,-5.198554E4,6.4226145E6,-1.6277694E6,-2.2056562E5,-1.687324E5,-7.870286E4,4.7234164E4,-4.6386207E4,-2.3741181E5,9.061167E4,2.4549606E5,-2.4823742E4,1.2543406E5,2.2472867E5,6.675777E4,-7.721114E4,2.3098598E5],"categories":[],"categories_nodes":[],"categories_segments":[],"categories_sizes":[],"default_left":[0,0,0,0,0,0,0,0,0,0,0,0,0,0,0,0,0,0,0,0,0,0,0,0,0,0,0,0,0],"id":28,"left_children":[1,3,5,7,9,11,13,15,-1,17,19,21,23,25,27,-1,-1,-1,-1,-1,-1,-1,-1,-1,-1,-1,-1,-1,-1],"loss_changes":[1.2056715E16,1.7968484E15,3.2034083E15,1.6257095E14,7.129385E14,2.1966395E15,1.09161694E15,2.8122372E13,0E0,4.8680126E14,1.7533801E13,7.3854325E14,1.250874E15,8.801725E14,1.874538E14,0E0,0E0,0E0,0E0,0E0,0E0,0E0,0E0,0E0,0E0,0E0,0E0,0E0,0E0],"parents":[2147483647,0,0,1,1,2,2,3,3,4,4,5,5,6,6,7,7,9,9,10,10,11,11,12,12,13,13,14,14],"right_children":[2,4,6,8,10,12,14,16,-1,18,20,22,24,26,28,-1,-1,-1,-1,-1,-1,-1,-1,-1,-1,-1,-1,-1,-1],"split_conditions":[7E1,5E1,8.5E1,1E0,1E0,7E0,1E0,3E1,9.8983875E4,1E0,1.9E1,1E0,1E0,2.7E1,1E0,-2.2056562E5,-1.687324E5,-7.870286E4,4.7234164E4,-4.6386207E4,-2.3741181E5,9.061167E4,2.4549606E5,-2.4823742E4,1.2543406E5,2.2472867E5,6.675777E4,-7.721114E4,2.3098598E5],"split_indices":[2,2,2,25,51,0,48,2,0,17,0,23,53,0,7,0,0,0,0,0,0,0,0,0,0,0,0,0,0],"split_type":[0,0,0,0,0,0,0,0,0,0,0,0,0,0,0,0,0,0,0,0,0,0,0,0,0,0,0,0,0],"sum_hessian":[1.146E3,4.21E2,7.25E2,1.51E2,2.7E2,5.08E2,2.17E2,1.5E2,1E0,2.46E2,2.4E1,1.29E2,3.79E2,1.99E2,1.8E1,1.18E2,3.2E1,2.15E2,3.1E1,1E0,2.3E1,8.8E1,4.1E1,3.21E2,5.8E1,1.58E2,4.1E1,1.7E1,1E0],"tree_param":{"num_deleted":"0","num_feature":"54","num_nodes":"29","size_leaf_vector":"1"}},{"base_weights":[3.34852E4,7.335811E6,-1.5713724E6,1.2297538E6,9.617492E6,-3.7835335E6,1.7626476E6,4.1022308E6,-2.748435E5,4.4520015E6,1.074799E7,-5.9973215E6,-1.9964282E6,3.8019665E6,-1.6059722E6,5.599732E4,1.7285139E5,8.349703E4,-5.2112164E4,1.515779E5,-7.31208E4,2.5593539E5,3.9862462E5,-2.163803E5,-1.4743939E5,-8.631188E4,5.7545168E4,-4.160039E4,1.6244864E5,-7.191729E4,1.4622062E5],"categories":[],"categories_nodes":[],"categories_segments":[],"categories_sizes":[],"default_left":[0,0,0,0,0,0,0,0,0,0,0,0,0,0,0,0,0,0,0,0,0,0,0,0,0,0,0,0,0,0,0],"id":29,"left_children":[1,3,5,7,9,11,13,15,17,19,21,23,25,27,29,-1,-1,-1,-1,-1,-1,-1,-1,-1,-1,-1,-1,-1,-1,-1,-1],"loss_changes":[1.3594072E16,2.899976E15,7.020665E15,2.517989E14,8.3976596E14,2.2510144E15,2.616588E15,6.344586E13,1.7922746E14,1.3230895E14,5.847093E14,3.0009044E14,1.1017705E15,1.9910156E15,7.500339E14,0E0,0E0,0E0,0E0,0E0,0E0,0E0,0E0,0E0,0E0,0E0,0E0,0E0,0E0,0E0,0E0],"parents":[2147483647,0,0,1,1,2,2,3,3,4,4,5,5,6,6,7,7,8,8,9,9,10,10,11,11,12,12,13,13,14,14],"right_children":[2,4,6,8,10,12,14,16,18,20,22,24,26,28,30,-1,-1,-1,-1,-1,-1,-1,-1,-1,-1,-1,-1,-1,-1,-1,-1],"split_conditions":[1.2E1,9.9E1,7.5E1,1.2E1,7E1,6.5E1,2.8E1,7.5E1,6E0,1E0,1.056E2,3E1,1E0,9.98E1,1E0,5.599732E4,1.7285139E5,8.349703E4,-5.2112164E4,1.515779E5,-7.31208E4,2.5593539E5,3.9862462E5,-2.163803E5,-1.4743939E5,-8.631188E4,5.7545168E4,-4.160039E4,1.6244864E5,-7.191729E4,1.4622062E5],"split_indices":[3,6,2,0,2,2,3,2,3,27,6,2,23,6,43,0,0,0,0,0,0,0,0,0,0,0,0,0,0,0,0],"split_type":[0,0,0,0,0,0,0,0,0,0,0,0,0,0,0,0,0,0,0,0,0,0,0,0,0,0,0,0,0,0,0],"sum_hessian":[1.158E3,2.08E2,9.5E2,5.7E1,1.51E2,5.71E2,3.79E2,1.9E1,3.8E1,2.8E1,1.23E2,2.54E2,3.17E2,2.36E2,1.43E2,9E0,1E1,1.2E1,2.6E1,2.6E1,2E0,6.8E1,5.5E1,1.17E2,1.37E2,2.59E2,5.8E1,5.6E1,1.8E2,1.28E2,1.5E1],"tree_param":{"num_deleted":"0","num_feature":"54","num_nodes":"31","size_leaf_vector":"1"}},{"base_weights":[-1.0489916E4,6.017242E6,-2.0520175E6,8.534818E6,2.8865492E6,-5.654143E6,-5.267279E5,9.218523E6,1.6771266E6,5.2567315E6,5.4362925E5,-2.071304E5,-4.5421525E6,7.6408475E5,-3.4265618E6,2.2709711E5,3.6617103E5,1.3753392E5,-8.147405E4,2.2870486E5,1.1440491E5,9.199433E4,-7.171208E4,-1.074909E5,-1.8009875E5,-2.1472814E4,1.0879959E5,3.601043E4,-1.4516603E5],"categories":[],"categories_nodes":[],"categories_segments":[],"categories_sizes":[],"default_left":[0,0,0,0,0,0,0,0,0,0,0,0,0,0,0,0,0,0,0,0,0,0,0,0,0,0,0,0,0],"id":30,"left_children":[1,3,5,7,9,11,13,15,17,19,21,-1,23,25,27,-1,-1,-1,-1,-1,-1,-1,-1,-1,-1,-1,-1,-1,-1],"loss_changes":[1.4348583E16,2.3004822E15,4.782544E15,7.4878675E14,7.357109E14,3.2870512E14,2.2971643E15,6.364626E14,2.1679809E14,1.9637047E14,5.1067416E14,0E0,1.746876E14,1.8029631E15,1.2408501E15,0E0,0E0,0E0,0E0,0E0,0E0,0E0,0E0,0E0,0E0,0E0,0E0,0E0,0E0],"parents":[2147483647,0,0,1,1,2,2,3,3,4,4,5,5,6,6,7,7,8,8,9,9,10,10,12,12,13,13,14,14],"right_children":[2,4,6,8,10,12,14,16,18,20,22,-1,24,26,28,-1,-1,-1,-1,-1,-1,-1,-1,-1,-1,-1,-1,-1,-1],"split_conditions":[1.5E1,1.9E1,6.5E1,1E0,0E0,3E1,3.1E1,2.5E-1,6E0,8E0,1E1,-2.071304E5,1E-1,8E1,6E0,2.2709711E5,3.6617103E5,1.3753392E5,-8.147405E4,2.2870486E5,1.1440491E5,9.199433E4,-7.171208E4,-1.074909E5,-1.8009875E5,-2.1472814E4,1.0879959E5,3.601043E4,-1.4516603E5],"split_indices":[3,0,2,42,5,2,3,5,0,3,3,0,5,2,0,0,0,0,0,0,0,0,0,0,0,0,0,0,0],"split_type":[0,0,0,0,0,0,0,0,0,0,0,0,0,0,0,0,0,0,0,0,0,0,0,0,0,0,0,0,0],"sum_hessian":[1.164E3,2.94E2,8.7E2,1.62E2,1.32E2,2.58E2,6.12E2,1.47E2,1.5E1,6.5E1,6.7E1,1.19E2,1.39E2,4.24E2,1.88E2,9.7E1,5E1,9E0,6E0,2.3E1,4.2E1,3.6E1,3.1E1,8.6E1,5.3E1,2.8E2,1.44E2,4.4E1,1.44E2],"tree_param":{"num_deleted":"0","num_feature":"54","num_nodes":"29","size_leaf_vector":"1"}},{"base_weights":[-5.531746E4,-3.5677155E6,2.0598009E6,-6.472755E6,-2.1707175E6,-1.1129829E6,3.0315402E6,-2.0170872E5,-4.6832055E6,-1.712161E6,-6.596872E6,-1.9841544E6,2.9696518E6,2.1525678E6,6.497707E6,-1.8385619E5,3.5027152E4,-1.1651698E5,-2.497709E4,-4.429792E4,-2.2166178E5,-7.883067E4,7.9997195E4,6.2052566E4,1.9140155E5,1.0900694E4,1.213756E5,3.8592725E5,1.7488462E5],"categories":[],"categories_nodes":[],"categories_segments":[],"categories_sizes":[],"default_left":[0,0,0,0,0,0,0,0,0,0,0,0,0,0,0,0,0,0,0,0,0,0,0,0,0,0,0,0,0],"id":31,"left_children":[1,3,5,7,9,11,13,-1,15,17,19,21,23,25,27,-1,-1,-1,-1,-1,-1,-1,-1,-1,-1,-1,-1,-1,-1],"loss_changes":[8.7960184E15,1.7919081E15,2.2817994E15,3.3159295E13,6.01657E14,6.247537E14,1.7104262E15,0E0,1.8473842E14,5.2208294E14,1.0261603E14,4.3798533E14,8.208387E13,1.533062E15,4.0999114E14,0E0,0E0,0E0,0E0,0E0,0E0,0E0,0E0,0E0,0E0,0E0,0E0,0E0,0E0],"parents":[2147483647,0,0,1,1,2,2,3,3,4,4,5,5,6,6,8,8,9,9,10,10,11,11,12,12,13,13,14,14],"right_children":[2,4,6,8,10,12,14,-1,16,18,20,22,24,26,28,-1,-1,-1,-1,-1,-1,-1,-1,-1,-1,-1,-1,-1,-1],"split_conditions":[7E1,4.5E1,9.98E1,1E0,1E0,9E1,1E0,-2.0170872E5,3.5E1,9.9E1,2.4E1,1E0,1E0,8E1,3E0,-1.8385619E5,3.5027152E4,-1.1651698E5,-2.497709E4,-4.429792E4,-2.2166178E5,-7.883067E4,7.9997195E4,6.2052566E4,1.9140155E5,1.0900694E4,1.213756E5,3.8592725E5,1.7488462E5],"split_indices":[2,2,6,4,51,2,47,0,2,6,0,43,47,2,1,0,0,0,0,0,0,0,0,0,0,0,0,0,0],"split_type":[0,0,0,0,0,0,0,0,0,0,0,0,0,0,0,0,0,0,0,0,0,0,0,0,0,0,0,0,0],"sum_hessian":[1.182E3,4.44E2,7.38E2,1.43E2,3.01E2,1.73E2,5.65E2,1.23E2,2E1,2.74E2,2.7E1,1.43E2,3E1,4.52E2,1.13E2,1.6E1,4E0,7.8E1,1.96E2,4E0,2.3E1,1.26E2,1.7E1,2.5E1,5E0,2.33E2,2.19E2,9E0,1.04E2],"tree_param":{"num_deleted":"0","num_feature":"54","num_nodes":"29","size_leaf_vector":"1"}},{"base_weights":[9.7966586E4,6.2825525E6,-1.7694544E6,1.4296295E6,9.197388E6,-5.3789025E6,-2.24691E5,-5.458763E5,3.537225E6,6.922037E6,1.1499645E7,-1.9435934E5,-4.0256645E6,1.6089164E6,-2.4730198E6,8.607976E4,-5.18265E4,1.2954103E5,-1.2384613E4,2.5161394E5,1.2156368E5,2.2013725E5,4.0333878E5,-7.686927E4,-1.6130653E5,-8.768382E4,1.0829542E5,4.141128E4,-1.0419384E5],"categories":[],"categories_nodes":[],"categories_segments":[],"categories_sizes":[],"default_left":[0,0,0,0,0,0,0,0,0,0,0,0,0,0,0,0,0,0,0,0,0,0,0,0,0,0,0,0,0],"id":32,"left_children":[1,3,5,7,9,11,13,15,17,19,21,-1,23,25,27,-1,-1,-1,-1,-1,-1,-1,-1,-1,-1,-1,-1,-1,-1],"loss_changes":[1.324653E16,3.7495473E15,4.911021E15,4.2245117E14,7.8998085E14,3.668074E14,2.5517163E15,2.1884655E14,1.5291003E14,3.2761796E14,5.569982E14,0E0,2.25478E14,3.1026162E15,1.0761544E15,0E0,0E0,0E0,0E0,0E0,0E0,0E0,0E0,0E0,0E0,0E0,0E0,0E0,0E0],"parents":[2147483647,0,0,1,1,2,2,3,3,4,4,5,5,6,6,7,7,8,8,9,9,10,10,12,12,13,13,14,14],"right_children":[2,4,6,8,10,12,14,16,18,20,22,-1,24,26,28,-1,-1,-1,-1,-1,-1,-1,-1,-1,-1,-1,-1,-1,-1],"split_conditions":[1.4E1,9.98E1,6.5E1,8E1,1.056E2,4.5E1,2.7E1,1.3E1,1E0,2.2E1,7.5E1,-1.9435934E5,1.3E1,9.98E1,6E0,8.607976E4,-5.18265E4,1.2954103E5,-1.2384613E4,2.5161394E5,1.2156368E5,2.2013725E5,4.0333878E5,-7.686927E4,-1.6130653E5,-8.768382E4,1.0829542E5,4.141128E4,-1.0419384E5],"split_indices":[3,6,2,2,6,2,3,0,19,0,2,0,0,6,0,0,0,0,0,0,0,0,0,0,0,0,0,0,0],"split_type":[0,0,0,0,0,0,0,0,0,0,0,0,0,0,0,0,0,0,0,0,0,0,0,0,0,0,0,0,0],"sum_hessian":[1.145E3,2.65E2,8.8E2,1E2,1.65E2,2.63E2,6.17E2,5.2E1,4.8E1,8.5E1,8E1,1.43E2,1.2E2,3.4E2,2.77E2,1.3E1,3.9E1,4E1,8E0,5.5E1,3E1,2.7E1,5.3E1,5.9E1,6.1E1,1.04E2,2.36E2,5.7E1,2.2E2],"tree_param":{"num_deleted":"0","num_feature":"54","num_nodes":"29","size_leaf_vector":"1"}},{"base_weights":[-9.9061445E4,5.679634E6,-1.7308092E6,6.4918865E6,3.8856512E5,-5.558134E6,-8.355797E5,1.0001257E7,5.537779E6,-1.6669518E6,3.2403845E6,-5.6311625E6,1.0285075E5,4.5007238E5,-3.5449828E6,1.3713311E5,3.3595684E5,1.3449952E5,2.5523411E5,5.893657E4,-7.9109555E4,4.182059E4,1.7332783E5,-1.7875766E5,-1.076565E5,5.2465348E4,-7.638319E4,-3.2401219E4,-1.5862867E5],"categories":[],"categories_nodes":[],"categories_segments":[],"categories_sizes":[],"default_left":[0,0,0,0,0,0,0,0,0,0,0,0,0,0,0,0,0,0,0,0,0,0,0,0,0,0,0,0,0],"id":33,"left_children":[1,3,5,7,9,11,13,15,17,19,21,23,-1,25,27,-1,-1,-1,-1,-1,-1,-1,-1,-1,-1,-1,-1,-1,-1],"loss_changes":[1.0919617E16,1.0933859E15,3.0893356E15,6.8459416E14,2.1057025E14,1.31528005E14,2.5548908E15,2.4788189E14,5.1304888E14,7.915678E13,6.221515E13,9.231442E13,0E0,1.9423474E15,1.0080288E15,0E0,0E0,0E0,0E0,0E0,0E0,0E0,0E0,0E0,0E0,0E0,0E0,0E0,0E0],"parents":[2147483647,0,0,1,1,2,2,3,3,4,4,5,5,6,6,7,7,8,8,9,9,10,10,11,11,13,13,14,14],"right_children":[2,4,6,8,10,12,14,16,18,20,22,24,-1,26,28,-1,-1,-1,-1,-1,-1,-1,-1,-1,-1,-1,-1,-1,-1],"split_conditions":[1.4E1,1E0,2E0,4E0,1E0,1E0,3.1E1,2.5E0,1E0,1E-1,4E0,1E0,1.0285075E5,1E0,1E0,1.3713311E5,3.3595684E5,1.3449952E5,2.5523411E5,5.893657E4,-7.9109555E4,4.182059E4,1.7332783E5,-1.7875766E5,-1.076565E5,5.2465348E4,-7.638319E4,-3.2401219E4,-1.5862867E5],"split_indices":[3,42,1,3,43,25,3,1,23,5,1,4,0,19,41,0,0,0,0,0,0,0,0,0,0,0,0,0,0],"split_type":[0,0,0,0,0,0,0,0,0,0,0,0,0,0,0,0,0,0,0,0,0,0,0,0,0,0,0,0,0],"sum_hessian":[1.156E3,2.54E2,9.02E2,2.2E2,3.4E1,1.7E2,7.32E2,4.5E1,1.75E2,2E1,1.4E1,1.69E2,1E0,4.97E2,2.35E2,9E0,3.6E1,1.31E2,4.4E1,4E0,1.6E1,9E0,5E0,1.44E2,2.5E1,3.47E2,1.5E2,9.8E1,1.37E2],"tree_param":{"num_deleted":"0","num_feature":"54","num_nodes":"29","size_leaf_vector":"1"}},{"base_weights":[-3.1861172E4,4.8908885E6,-1.927432E6,-8.413347E5,7.369299E6,-3.5420245E6,6.748212E5,9.751518E5,-3.9115322E6,9.292108E6,5.1646105E6,-5.890994E6,-2.7298008E6,2.4626175E6,-2.6852465E6,-3.0700445E4,1.103316E5,-1.2831082E5,4.9692617E4,2.2397844E5,3.509824E5,1.30219555E5,2.8893247E5,-1.8255747E5,-1.3215569E5,-1.0013971E5,8.91654E3,-7.49547E4,1.037323E5,-1.1679123E5,1.6395639E5],"categories":[],"categories_nodes":[],"categories_segments":[],"categories_sizes":[],"default_left":[0,0,0,0,0,0,0,0,0,0,0,0,0,0,0,0,0,0,0,0,0,0,0,0,0,0,0,0,0,0,0],"id":34,"left_children":[1,3,5,7,9,11,13,15,17,19,21,23,25,27,29,-1,-1,-1,-1,-1,-1,-1,-1,-1,-1,-1,-1,-1,-1,-1,-1],"loss_changes":[1.0908527E16,4.623411E15,3.5485224E15,5.559346E14,9.143073E14,9.779286E14,1.9529185E15,3.4403185E14,8.238177E13,4.4018798E14,3.5565524E14,1.1580842E13,7.171414E14,1.0552674E15,1.1336572E15,0E0,0E0,0E0,0E0,0E0,0E0,0E0,0E0,0E0,0E0,0E0,0E0,0E0,0E0,0E0,0E0],"parents":[2147483647,0,0,1,1,2,2,3,3,4,4,5,5,6,6,7,7,8,8,9,9,10,10,11,11,12,12,13,13,14,14],"right_children":[2,4,6,8,10,12,14,16,18,20,22,24,26,28,30,-1,-1,-1,-1,-1,-1,-1,-1,-1,-1,-1,-1,-1,-1,-1,-1],"split_conditions":[1.6E1,9.9E1,7.5E1,1.2E1,1E1,4.5E1,3.2E1,8E1,1E0,8E1,5E-1,3E1,1E0,9.98E1,1E0,-3.0700445E4,1.103316E5,-1.2831082E5,4.9692617E4,2.2397844E5,3.509824E5,1.30219555E5,2.8893247E5,-1.8255747E5,-1.3215569E5,-1.0013971E5,8.91654E3,-7.49547E4,1.037323E5,-1.1679123E5,1.6395639E5],"split_indices":[3,6,2,3,3,2,3,2,47,2,5,2,23,6,43,0,0,0,0,0,0,0,0,0,0,0,0,0,0,0,0],"split_type":[0,0,0,0,0,0,0,0,0,0,0,0,0,0,0,0,0,0,0,0,0,0,0,0,0,0,0,0,0,0,0],"sum_hessian":[1.167E3,3.24E2,8.43E2,9.8E1,2.26E2,5.2E2,3.23E2,6.2E1,3.6E1,1.19E2,1.07E2,1.32E2,3.88E2,2.11E2,1.12E2,3.6E1,2.6E1,3.4E1,2E0,7E1,4.9E1,9.2E1,1.5E1,1.14E2,1.8E1,3.23E2,6.5E1,3.5E1,1.76E2,9.8E1,1.4E1],"tree_param":{"num_deleted":"0","num_feature":"54","num_nodes":"31","size_leaf_vector":"1"}},{"base_weights":[-7.593606E4,4.1299272E6,-2.1169988E6,-8.184333E5,7.396394E6,-3.6607775E6,5.345148E5,1.911331E6,-2.3859422E6,4.6160055E6,8.667883E6,-4.9517635E6,-2.3962482E6,1.9736058E6,-2.1637298E6,1.0936609E5,1.1855403E4,-1.0779903E5,9.014295E3,2.2371966E5,9.5652164E4,2.0666833E5,3.315724E5,-1.7929167E5,-1.2404309E5,8.766123E4,-9.384295E4,1.3949033E5,-2.2950237E3,-9.394234E4,1.222018E5],"categories":[],"categories_nodes":[],"categories_segments":[],"categories_sizes":[],"default_left":[0,0,0,0,0,0,0,0,0,0,0,0,0,0,0,0,0,0,0,0,0,0,0,0,0,0,0,0,0,0,0],"id":35,"left_children":[1,3,5,7,9,11,13,15,17,19,21,23,25,27,29,-1,-1,-1,-1,-1,-1,-1,-1,-1,-1,-1,-1,-1,-1,-1,-1],"loss_changes":[9.983852E15,6.148242E15,3.20705E15,6.549577E14,7.695572E14,7.962161E14,1.1264628E15,1.4580115E14,3.1569644E14,2.7638651E14,5.856027E14,1.7954467E14,9.899725E14,1.0372537E15,6.22346E14,0E0,0E0,0E0,0E0,0E0,0E0,0E0,0E0,0E0,0E0,0E0,0E0,0E0,0E0,0E0,0E0],"parents":[2147483647,0,0,1,1,2,2,3,3,4,4,5,5,6,6,7,7,8,8,9,9,10,10,11,11,12,12,13,13,14,14],"right_children":[2,4,6,8,10,12,14,16,18,20,22,24,26,28,30,-1,-1,-1,-1,-1,-1,-1,-1,-1,-1,-1,-1,-1,-1,-1,-1],"split_conditions":[1.8E1,9.98E1,7.5E1,1E1,1.023E2,6.5E1,3.2E1,1E-1,8E1,8E0,8E1,3E1,5E0,1.1E1,1E0,1.0936609E5,1.1855403E4,-1.0779903E5,9.014295E3,2.2371966E5,9.5652164E4,2.0666833E5,3.315724E5,-1.7929167E5,-1.2404309E5,8.766123E4,-9.384295E4,1.3949033E5,-2.2950237E3,-9.394234E4,1.222018E5],"split_indices":[3,6,2,3,6,2,3,5,2,3,2,2,0,0,43,0,0,0,0,0,0,0,0,0,0,0,0,0,0,0,0],"split_type":[0,0,0,0,0,0,0,0,0,0,0,0,0,0,0,0,0,0,0,0,0,0,0,0,0,0,0,0,0,0,0],"sum_hessian":[1.161E3,3.79E2,7.82E2,1.51E2,2.28E2,4.94E2,2.88E2,5.5E1,9.6E1,7.3E1,1.55E2,2.43E2,2.51E2,1.88E2,1E2,2.5E1,3E1,6.6E1,3E1,2.3E1,5E1,9.1E1,6.4E1,1.05E2,1.38E2,3E1,2.21E2,8.1E1,1.07E2,8.7E1,1.3E1],"tree_param":{"num_deleted":"0","num_feature":"54","num_nodes":"31","size_leaf_vector":"1"}},{"base_weights":[-5.999437E4,-3.3972992E6,2.015504E6,-5.6973035E6,-2.2359728E6,3.7830842E6,2.8588206E5,-1.7634319E5,-4.14134E6,-1.7354396E6,-6.8535245E6,-9.373197E5,4.33181E6,-1.7014576E6,2.3715468E6,-1.6883489E5,5.207745E2,-6.454299E4,5.4734562E4,-5.944686E4,-2.201838E5,7.069497E4,-1.20587445E5,1.4125895E5,-1.5355627E4,-6.938465E4,1.6511389E5,8.850871E4,-7.130942E4],"categories":[],"categories_nodes":[],"categories_segments":[],"categories_sizes":[],"default_left":[0,0,0,0,0,0,0,0,0,0,0,0,0,0,0,0,0,0,0,0,0,0,0,0,0,0,0,0,0],"id":36,"left_children":[1,3,5,7,9,11,13,-1,15,17,19,21,23,25,27,-1,-1,-1,-1,-1,-1,-1,-1,-1,-1,-1,-1,-1,-1],"loss_changes":[8.110935E15,1.1865647E15,2.2062498E15,1.785579E13,6.8147736E14,9.2876467E14,1.5210773E15,0E0,1.1755312E14,4.0673146E14,5.4112696E13,3.9526376E14,5.86474E14,8.408757E14,4.9893716E14,0E0,0E0,0E0,0E0,0E0,0E0,0E0,0E0,0E0,0E0,0E0,0E0,0E0,0E0],"parents":[2147483647,0,0,1,1,2,2,3,3,4,4,5,5,6,6,8,8,9,9,10,10,11,11,12,12,13,13,14,14],"right_children":[2,4,6,8,10,12,14,-1,16,18,20,22,24,26,28,-1,-1,-1,-1,-1,-1,-1,-1,-1,-1,-1,-1,-1,-1],"split_conditions":[7E1,4.5E1,1.2E1,1E0,1E0,9.9E1,8E1,-1.7634319E5,1.01E2,1E0,2.5E0,1E0,1E0,1E0,1E0,-1.6883489E5,5.207745E2,-6.454299E4,5.4734562E4,-5.944686E4,-2.201838E5,7.069497E4,-1.20587445E5,1.4125895E5,-1.5355627E4,-6.938465E4,1.6511389E5,8.850871E4,-7.130942E4],"split_indices":[2,2,0,4,51,6,2,0,6,17,1,19,34,47,48,0,0,0,0,0,0,0,0,0,0,0,0,0,0],"split_type":[0,0,0,0,0,0,0,0,0,0,0,0,0,0,0,0,0,0,0,0,0,0,0,0,0,0,0,0,0],"sum_hessian":[1.169E3,4.48E2,7.21E2,1.49E2,2.99E2,3.56E2,3.65E2,1.31E2,1.8E1,2.71E2,2.8E1,3.7E1,3.19E2,1.87E2,1.78E2,1.3E1,5E0,2.43E2,2.8E1,3E0,2.5E1,1.8E1,1.9E1,2.96E2,2.3E1,1.73E2,1.4E1,1.59E2,1.9E1],"tree_param":{"num_deleted":"0","num_feature":"54","num_nodes":"29","size_leaf_vector":"1"}},{"base_weights":[-1.4327139E5,-2.2631712E6,2.7123962E6,-4.4873205E6,-6.528782E5,2.0113965E6,6.625971E6,-5.477531E6,-3.239404E6,-1.5704584E6,3.4855592E6,3.0094828E6,-9.083813E5,7.698957E6,-1.9788134E6,-1.663344E5,-8.739569E4,9.9627414E4,-1.0621274E5,-3.2290746E4,-2.1776894E5,2.044943E4,2.3777405E5,1.01941266E5,-2.086588E5,1.03437805E5,-4.4848375E4,9.2345625E4,2.771778E5,-7.990123E4,5.246511E4],"categories":[],"categories_nodes":[],"categories_segments":[],"categories_sizes":[],"default_left":[0,0,0,0,0,0,0,0,0,0,0,0,0,0,0,0,0,0,0,0,0,0,0,0,0,0,0,0,0,0,0],"id":37,"left_children":[1,3,5,7,9,11,13,15,17,19,21,23,25,27,29,-1,-1,-1,-1,-1,-1,-1,-1,-1,-1,-1,-1,-1,-1,-1,-1],"loss_changes":[6.9618736E15,2.3608815E15,1.3309457E15,3.245449E14,1.4636555E15,1.217951E15,6.9846315E14,1.0115185E13,2.5860656E14,8.7755456E14,8.661007E14,1.227798E15,2.7856685E14,4.4130735E14,2.7624038E13,0E0,0E0,0E0,0E0,0E0,0E0,0E0,0E0,0E0,0E0,0E0,0E0,0E0,0E0,0E0,0E0],"parents":[2147483647,0,0,1,1,2,2,3,3,4,4,5,5,6,6,7,7,8,8,9,9,10,10,11,11,12,12,13,13,14,14],"right_children":[2,4,6,8,10,12,14,16,18,20,22,24,26,28,30,-1,-1,-1,-1,-1,-1,-1,-1,-1,-1,-1,-1,-1,-1,-1,-1],"split_conditions":[7.5E1,6.5E1,1E0,4.5E1,1E0,1E0,1E0,2E0,3E0,1E0,1.023E2,1E0,4E0,9.95E1,1.6E1,-1.663344E5,-8.739569E4,9.9627414E4,-1.0621274E5,-3.2290746E4,-2.1776894E5,2.044943E4,2.3777405E5,1.01941266E5,-2.086588E5,1.03437805E5,-4.4848375E4,9.2345625E4,2.771778E5,-7.990123E4,5.246511E4],"split_indices":[2,2,23,2,23,42,50,1,0,51,6,49,0,6,0,0,0,0,0,0,0,0,0,0,0,0,0,0,0,0,0],"split_type":[0,0,0,0,0,0,0,0,0,0,0,0,0,0,0,0,0,0,0,0,0,0,0,0,0,0,0,0,0,0,0],"sum_hessian":[1.148E3,6.59E2,4.89E2,2.76E2,3.83E2,4.16E2,7.3E1,1.52E2,1.24E2,3.14E2,6.9E1,3.1E2,1.06E2,6.5E1,8E0,1.47E2,5E0,5E0,1.19E2,2.9E2,2.4E1,4.3E1,2.6E1,2.99E2,1.1E1,1.2E1,9.4E1,1.7E1,4.8E1,7E0,1E0],"tree_param":{"num_deleted":"0","num_feature":"54","num_nodes":"31","size_leaf_vector":"1"}},{"base_weights":[-3.3337457E4,5.167455E6,-1.4949618E6,-6.3297387E4,7.271471E6,-4.6518155E6,-6.370941E5,2.7660175E6,-1.3679178E6,9.398135E6,5.430766E6,-4.1823488E6,-7.211077E6,3.4718528E6,-1.9555932E6,1.20894375E5,-7.958981E3,8.555288E4,-5.632487E4,3.1713412E5,1.448656E5,1.296954E5,2.641241E5,-1.6127528E5,-1.0355111E5,-1.1684428E4,-2.2322384E5,1.389168E5,-3.2852754E3,-4.180407E4,-1.7911033E5],"categories":[],"categories_nodes":[],"categories_segments":[],"categories_sizes":[],"default_left":[0,0,0,0,0,0,0,0,0,0,0,0,0,0,0,0,0,0,0,0,0,0,0,0,0,0,0,0,0,0,0],"id":38,"left_children":[1,3,5,7,9,11,13,15,17,19,21,23,25,27,29,-1,-1,-1,-1,-1,-1,-1,-1,-1,-1,-1,-1,-1,-1,-1,-1],"loss_changes":[8.9396104E15,2.8399022E15,2.48313E15,2.8062233E14,6.6923966E14,2.0533219E14,3.9237455E15,9.301223E13,1.171675E14,3.9917587E14,3.3930403E14,1.2794359E14,4.2546214E13,7.308633E14,1.2284012E15,0E0,0E0,0E0,0E0,0E0,0E0,0E0,0E0,0E0,0E0,0E0,0E0,0E0,0E0,0E0,0E0],"parents":[2147483647,0,0,1,1,2,2,3,3,4,4,5,5,6,6,7,7,8,8,9,9,10,10,11,11,12,12,13,13,14,14],"right_children":[2,4,6,8,10,12,14,16,18,20,22,24,26,28,30,-1,-1,-1,-1,-1,-1,-1,-1,-1,-1,-1,-1,-1,-1,-1,-1],"split_conditions":[1.4E1,9.9E1,9.9E1,7E0,7E0,3E1,2.3E1,1E0,7E0,4.5E1,1E0,2E0,2E0,1E0,4.3E1,1.20894375E5,-7.958981E3,8.555288E4,-5.632487E4,3.1713412E5,1.448656E5,1.296954E5,2.641241E5,-1.6127528E5,-1.0355111E5,-1.1684428E4,-2.2322384E5,1.389168E5,-3.2852754E3,-4.180407E4,-1.7911033E5],"split_indices":[3,6,6,3,3,3,3,19,0,0,23,1,0,19,3,0,0,0,0,0,0,0,0,0,0,0,0,0,0,0,0],"split_type":[0,0,0,0,0,0,0,0,0,0,0,0,0,0,0,0,0,0,0,0,0,0,0,0,0,0,0,0,0,0,0],"sum_hessian":[1.174E3,2.57E2,9.17E2,7.4E1,1.83E2,1.95E2,7.22E2,2.3E1,5.1E1,8.3E1,1E2,1.67E2,2.8E1,1.75E2,5.47E2,1.6E1,7E0,5E0,4.6E1,6.5E1,1.8E1,7.7E1,2.3E1,6.1E1,1.06E2,1E0,2.7E1,1.32E2,4.3E1,4.81E2,6.6E1],"tree_param":{"num_deleted":"0","num_feature":"54","num_nodes":"31","size_leaf_vector":"1"}},{"base_weights":[-9.132805E4,5.2365385E6,-1.6344311E6,6.4680044E5,7.702089E6,-2.4902958E6,2.8132095E6,-1.2593762E6,2.9914288E6,9.192711E6,4.639451E6,-4.676316E6,-1.4137695E6,4.6919295E6,-5.0925147E5,1.6793425E3,-1.01002266E5,1.2410433E5,2.6148951E4,2.2787961E5,3.416387E5,1.0233361E5,2.0408167E5,-1.417135E5,1.0785913E5,-1.3031439E5,-2.2848242E4,-3.0132076E4,1.6146064E5,-5.008436E4,1.6432145E5],"categories":[],"categories_nodes":[],"categories_segments":[],"categories_sizes":[],"default_left":[0,0,0,0,0,0,0,0,0,0,0,0,0,0,0,0,0,0,0,0,0,0,0,0,0,0,0,0,0,0,0],"id":39,"left_children":[1,3,5,7,9,11,13,15,17,19,21,23,25,27,29,-1,-1,-1,-1,-1,-1,-1,-1,-1,-1,-1,-1,-1,-1,-1,-1],"loss_changes":[9.627651E15,2.9711875E15,3.4633784E15,4.1941E14,7.380064E14,1.7866092E15,9.199596E14,1.4432899E14,9.836931E13,3.1308916E14,1.3091342E14,1.1553462E14,9.7505274E14,3.7491897E14,3.842205E14,0E0,0E0,0E0,0E0,0E0,0E0,0E0,0E0,0E0,0E0,0E0,0E0,0E0,0E0,0E0,0E0],"parents":[2147483647,0,0,1,1,2,2,3,3,4,4,5,5,6,6,7,7,8,8,9,9,10,10,11,11,12,12,13,13,14,14],"right_children":[2,4,6,8,10,12,14,16,18,20,22,24,26,28,30,-1,-1,-1,-1,-1,-1,-1,-1,-1,-1,-1,-1,-1,-1,-1,-1],"split_conditions":[1.4E1,9.98E1,8.5E1,8E1,1.9E1,6.5E1,2.6E1,2.5E-1,1E1,0E0,1.056E2,1E0,9.9E1,9.83E1,1E0,1.6793425E3,-1.01002266E5,1.2410433E5,2.6148951E4,2.2787961E5,3.416387E5,1.0233361E5,2.0408167E5,-1.417135E5,1.0785913E5,-1.3031439E5,-2.2848242E4,-3.0132076E4,1.6146064E5,-5.008436E4,1.6432145E5],"split_indices":[3,6,2,2,0,2,3,5,3,5,6,25,6,6,43,0,0,0,0,0,0,0,0,0,0,0,0,0,0,0,0],"split_type":[0,0,0,0,0,0,0,0,0,0,0,0,0,0,0,0,0,0,0,0,0,0,0,0,0,0,0,0,0,0,0],"sum_hessian":[1.169E3,2.62E2,9.07E2,9.2E1,1.7E2,7.61E2,1.46E2,5.1E1,4.1E1,1.13E2,5.7E1,2.5E2,5.11E2,9.3E1,5.3E1,3.2E1,1.9E1,2.6E1,1.5E1,6.8E1,4.5E1,3.8E1,1.9E1,2.49E2,1E0,9.2E1,4.19E2,1E1,8.3E1,4.5E1,8E0],"tree_param":{"num_deleted":"0","num_feature":"54","num_nodes":"31","size_leaf_vector":"1"}},{"base_weights":[-2.464121E4,6.1414145E6,-1.3898176E6,3.130479E6,9.328292E6,1.6837408E5,-2.9127982E6,1.0558084E6,5.185953E6,1.0347478E7,6.2651775E6,-3.2172545E6,2.8710875E6,-2.3821642E6,-6.0019275E6,1.2005839E5,4.840884E3,2.0672981E5,8.592793E4,3.3900062E5,1.6169895E5,1.999529E5,-6.798969E4,-1.2085952E5,-3.780148E4,1.3584166E5,-1.7755068E4,-1.30898625E5,-3.6711547E4,-1.8634678E5,1.2694029E5],"categories":[],"categories_nodes":[],"categories_segments":[],"categories_sizes":[],"default_left":[0,0,0,0,0,0,0,0,0,0,0,0,0,0,0,0,0,0,0,0,0,0,0,0,0,0,0,0,0,0,0],"id":40,"left_children":[1,3,5,7,9,11,13,15,17,19,21,23,25,27,29,-1,-1,-1,-1,-1,-1,-1,-1,-1,-1,-1,-1,-1,-1,-1,-1],"loss_changes":[9.798383E15,1.995445E15,2.2620508E15,4.636122E14,2.5360332E14,4.328218E15,7.7579565E14,1.469232E14,1.979839E14,2.9326144E14,1.10638894E14,3.2841816E14,1.5117615E15,9.425056E14,1.764488E14,0E0,0E0,0E0,0E0,0E0,0E0,0E0,0E0,0E0,0E0,0E0,0E0,0E0,0E0,0E0,0E0],"parents":[2147483647,0,0,1,1,2,2,3,3,4,4,5,5,6,6,7,7,8,8,9,9,10,10,11,11,12,12,13,13,14,14],"right_children":[2,4,6,8,10,12,14,16,18,20,22,24,26,28,30,-1,-1,-1,-1,-1,-1,-1,-1,-1,-1,-1,-1,-1,-1,-1,-1],"split_conditions":[1.2E1,1.023E2,2.6E1,9.9E1,9E0,9.98E1,4.3E1,1.2E1,8E0,2.7E1,1E0,9.83E1,2.5E1,1.023E2,6.9E1,1.2005839E5,4.840884E3,2.0672981E5,8.592793E4,3.3900062E5,1.6169895E5,1.999529E5,-6.798969E4,-1.2085952E5,-3.780148E4,1.3584166E5,-1.7755068E4,-1.30898625E5,-3.6711547E4,-1.8634678E5,1.2694029E5],"split_indices":[3,6,3,6,3,6,3,0,3,0,27,6,0,6,3,0,0,0,0,0,0,0,0,0,0,0,0,0,0,0,0],"split_type":[0,0,0,0,0,0,0,0,0,0,0,0,0,0,0,0,0,0,0,0,0,0,0,0,0,0,0,0,0,0,0],"sum_hessian":[1.162E3,2.1E2,9.52E2,1.09E2,1.01E2,4.71E2,4.81E2,5.5E1,5.4E1,7.4E1,2.7E1,2.09E2,2.62E2,4.12E2,6.9E1,1.2E1,4.3E1,3E1,2.4E1,6.1E1,1.3E1,2.6E1,1E0,1.47E2,6.2E1,1.77E2,8.5E1,1.51E2,2.61E2,6.8E1,1E0],"tree_param":{"num_deleted":"0","num_feature":"54","num_nodes":"31","size_leaf_vector":"1"}},{"base_weights":[3.0881162E4,4.0399465E6,-1.5303785E6,-6.141283E5,6.0608025E6,-2.6016948E6,1.8237348E6,1.631117E6,-2.5936078E6,3.755667E6,7.503529E6,-4.781297E6,-1.8004971E6,3.743456E6,-1.1506335E6,9.2865695E4,-3.4056566E4,1.2003772E5,-9.6408664E4,1.6976564E5,8.5067625E4,1.7311966E5,3.0041016E5,-1.451964E5,7.591128E4,3.556833E3,-9.481688E4,-4.3577664E4,1.5053328E5,1.0142685E5,-9.45927E4],"categories":[],"categories_nodes":[],"categories_segments":[],"categories_sizes":[],"default_left":[0,0,0,0,0,0,0,0,0,0,0,0,0,0,0,0,0,0,0,0,0,0,0,0,0,0,0,0,0,0,0],"id":41,"left_children":[1,3,5,7,9,11,13,15,17,19,21,23,25,27,29,-1,-1,-1,-1,-1,-1,-1,-1,-1,-1,-1,-1,-1,-1,-1,-1],"loss_changes":[7.235549E15,3.0510116E15,2.9943838E15,4.4422773E14,7.234228E14,1.0933011E15,1.1577189E15,1.9391294E14,2.2957097E14,1.3980038E14,5.4248175E14,8.4636626E13,1.2088255E15,8.217236E14,7.365954E14,0E0,0E0,0E0,0E0,0E0,0E0,0E0,0E0,0E0,0E0,0E0,0E0,0E0,0E0,0E0,0E0],"parents":[2147483647,0,0,1,1,2,2,3,3,4,4,5,5,6,6,7,7,8,8,9,9,10,10,11,11,12,12,13,13,14,14],"right_children":[2,4,6,8,10,12,14,16,18,20,22,24,26,28,30,-1,-1,-1,-1,-1,-1,-1,-1,-1,-1,-1,-1,-1,-1,-1,-1],"split_conditions":[1.6E1,9.9E1,8E1,9E0,1.023E2,5.5E1,2.8E1,1E0,6E0,8E0,8E1,1E0,1.2E1,9.98E1,8E0,9.2865695E4,-3.4056566E4,1.2003772E5,-9.6408664E4,1.6976564E5,8.5067625E4,1.7311966E5,3.0041016E5,-1.451964E5,7.591128E4,3.556833E3,-9.481688E4,-4.3577664E4,1.5053328E5,1.0142685E5,-9.45927E4],"split_indices":[3,6,2,3,6,2,3,19,0,3,2,24,0,6,0,0,0,0,0,0,0,0,0,0,0,0,0,0,0,0,0],"split_type":[0,0,0,0,0,0,0,0,0,0,0,0,0,0,0,0,0,0,0,0,0,0,0,0,0,0,0,0,0,0,0],"sum_hessian":[1.154E3,3.23E2,8.31E2,9.8E1,2.25E2,6.3E2,2.01E2,4.6E1,5.2E1,8.8E1,1.37E2,1.68E2,4.62E2,1.22E2,7.9E1,3E1,1.6E1,4E0,4.8E1,2.7E1,6.1E1,8.3E1,5.4E1,1.67E2,1E0,1.92E2,2.7E2,2.4E1,9.8E1,2.4E1,5.5E1],"tree_param":{"num_deleted":"0","num_feature":"54","num_nodes":"31","size_leaf_vector":"1"}},{"base_weights":[2.0959928E5,4.756676E6,-1.1832042E6,2.423595E6,6.4767575E6,-3.4015668E6,4.0356447E5,1.3640335E6,6.022676E6,5.2498125E6,9.592117E6,-4.1500192E6,-9.7900844E5,1.9385321E6,-1.7652749E6,1.15504445E5,-2.4227863E4,1.4497528E5,5.5450525E5,3.6489316E5,1.2806094E5,2.11189E5,4.085696E5,-1.0247838E5,-1.4937358E5,3.207889E4,-8.757964E4,3.1338568E4,1.5763689E5,-7.479678E4,6.9353586E4],"categories":[],"categories_nodes":[],"categories_segments":[],"categories_sizes":[],"default_left":[0,0,0,0,0,0,0,0,0,0,0,0,0,0,0,0,0,0,0,0,0,0,0,0,0,0,0,0,0,0,0],"id":42,"left_children":[1,3,5,7,9,11,13,15,17,19,21,23,25,27,29,-1,-1,-1,-1,-1,-1,-1,-1,-1,-1,-1,-1,-1,-1,-1,-1],"loss_changes":[7.5357853E15,1.1039548E15,3.2081183E15,4.4939847E14,5.6122338E14,6.849415E14,1.7745021E15,5.1060772E14,3.1110092E14,7.41659E14,3.5638216E14,1.5949146E14,3.647877E14,9.1935506E14,6.6167E14,0E0,0E0,0E0,0E0,0E0,0E0,0E0,0E0,0E0,0E0,0E0,0E0,0E0,0E0,0E0,0E0],"parents":[2147483647,0,0,1,1,2,2,3,3,4,4,5,5,6,6,7,7,8,8,9,9,10,10,11,11,12,12,13,13,14,14],"right_children":[2,4,6,8,10,12,14,16,18,20,22,24,26,28,30,-1,-1,-1,-1,-1,-1,-1,-1,-1,-1,-1,-1,-1,-1,-1,-1],"split_conditions":[1.4E1,7.5E1,7E1,1E0,2.5E-1,1E0,2.8E1,8E0,1E0,3E0,8.5E1,0E0,0E0,9E1,1E0,1.15504445E5,-2.4227863E4,1.4497528E5,5.5450525E5,3.6489316E5,1.2806094E5,2.11189E5,4.085696E5,-1.0247838E5,-1.4937358E5,3.207889E4,-8.757964E4,3.1338568E4,1.5763689E5,-7.479678E4,6.9353586E4],"split_indices":[3,2,2,23,5,4,3,3,46,3,2,5,5,2,23,0,0,0,0,0,0,0,0,0,0,0,0,0,0,0,0],"split_type":[0,0,0,0,0,0,0,0,0,0,0,0,0,0,0,0,0,0,0,0,0,0,0,0,0,0,0,0,0,0,0],"sum_hessian":[1.188E3,2.78E2,9.1E2,1.19E2,1.59E2,3.79E2,5.31E2,9.3E1,2.6E1,1.16E2,4.3E1,2.89E2,9E1,3.11E2,2.2E2,4.3E1,5E1,2.5E1,1E0,1.3E1,1.03E2,2.8E1,1.5E1,1.56E2,1.33E2,4.4E1,4.6E1,2.46E2,6.5E1,1.87E2,3.3E1],"tree_param":{"num_deleted":"0","num_feature":"54","num_nodes":"31","size_leaf_vector":"1"}},{"base_weights":[-2.3743154E4,-1.9140801E6,2.3917345E6,-4.522645E6,-1.006072E6,2.9994418E6,-2.4265912E6,-4.562962E6,3.1944943E4,-1.8401454E6,2.9379648E6,3.7426015E6,3.071099E5,-2.6647465E6,1.6365156E5,-1.4417983E5,-9.4283875E4,-4.2550754E4,-1.4394414E5,1.1544143E5,-6.985476E4,1.22845984E5,-1.508821E5,8.67368E4,-6.3930645E4,1.5832194E5,-8.715305E4],"categories":[],"categories_nodes":[],"categories_segments":[],"categories_sizes":[],"default_left":[0,0,0,0,0,0,0,0,0,0,0,0,0,0,0,0,0,0,0,0,0,0,0,0,0,0,0],"id":43,"left_children":[1,3,5,7,9,11,13,15,-1,17,19,21,23,25,-1,-1,-1,-1,-1,-1,-1,-1,-1,-1,-1,-1,-1],"loss_changes":[5.241856E15,1.5208272E15,1.4830568E15,4.225362E13,1.5811321E15,8.952234E14,1.2152848E14,4.1844793E13,0E0,4.8726095E14,4.1156477E14,1.10520837E15,6.23602E14,1.2223182E14,0E0,0E0,0E0,0E0,0E0,0E0,0E0,0E0,0E0,0E0,0E0,0E0,0E0],"parents":[2147483647,0,0,1,1,2,2,3,3,4,4,5,5,6,6,7,7,9,9,10,10,11,11,12,12,13,13],"right_children":[2,4,6,8,10,12,14,16,-1,18,20,22,24,26,-1,-1,-1,-1,-1,-1,-1,-1,-1,-1,-1,-1,-1],"split_conditions":[7.5E1,5.5E1,1E0,1E0,1E0,1E0,1E0,1E0,3.1944943E4,1.2E2,1E0,1E0,1E1,5E0,1.6365156E5,-1.4417983E5,-9.4283875E4,-4.2550754E4,-1.4394414E5,1.1544143E5,-6.985476E4,1.22845984E5,-1.508821E5,8.67368E4,-6.3930645E4,1.5832194E5,-8.715305E4],"split_indices":[2,2,48,36,23,42,7,4,0,0,46,49,0,0,0,0,0,0,0,0,0,0,0,0,0,0,0],"split_type":[0,0,0,0,0,0,0,0,0,0,0,0,0,0,0,0,0,0,0,0,0,0,0,0,0,0,0],"sum_hessian":[1.146E3,6.43E2,5.03E2,1.65E2,4.78E2,4.47E2,5.6E1,1.64E2,1E0,3.95E2,8.3E1,3.5E2,9.7E1,5.5E1,1E0,1.38E2,2.6E1,3.47E2,4.8E1,7.1E1,1.2E1,3.37E2,1.3E1,4.7E1,5E1,1E0,5.4E1],"tree_param":{"num_deleted":"0","num_feature":"54","num_nodes":"27","size_leaf_vector":"1"}},{"base_weights":[1.976866E5,-2.5565468E6,1.706392E6,-4.643255E6,-1.5114902E6,7.283011E5,4.1144578E6,-1.4385394E5,-3.2891175E6,-1.1014586E6,-5.584149E6,-4.708681E3,4.460041E6,5.057161E6,9.468917E5,-1.3568825E5,5.5546402E4,-2.1883244E4,-1.4872719E5,-4.7025676E4,-1.7595803E5,1.00245205E4,-1.5334905E5,4.6953273E4,2.0856319E5,7.560214E4,1.9368827E5,1.2211499E4,2.1564806E5],"categories":[],"categories_nodes":[],"categories_segments":[],"categories_sizes":[],"default_left":[0,0,0,0,0,0,0,0,0,0,0,0,0,0,0,0,0,0,0,0,0,0,0,0,0,0,0,0,0],"id":44,"left_children":[1,3,5,7,9,11,13,-1,15,17,19,21,23,25,27,-1,-1,-1,-1,-1,-1,-1,-1,-1,-1,-1,-1,-1,-1],"loss_changes":[4.837007E15,8.914417E14,1.7681944E15,1.2403597E13,4.5474678E14,1.4661965E15,6.431896E14,0E0,1.1619994E14,3.5788805E14,1.9034892E13,7.7871596E14,6.239829E14,5.765261E14,1.6891117E14,0E0,0E0,0E0,0E0,0E0,0E0,0E0,0E0,0E0,0E0,0E0,0E0,0E0,0E0],"parents":[2147483647,0,0,1,1,2,2,3,3,4,4,5,5,6,6,8,8,9,9,10,10,11,11,12,12,13,13,14,14],"right_children":[2,4,6,8,10,12,14,-1,16,18,20,22,24,26,28,-1,-1,-1,-1,-1,-1,-1,-1,-1,-1,-1,-1,-1,-1],"split_conditions":[7E1,4.5E1,8.5E1,1E0,1E0,1E0,2.7E1,-1.4385394E5,3.5E1,1.2E2,2E1,1E0,1.023E2,1.01E2,1.15E2,-1.3568825E5,5.5546402E4,-2.1883244E4,-1.4872719E5,-4.7025676E4,-1.7595803E5,1.00245205E4,-1.5334905E5,4.6953273E4,2.0856319E5,7.560214E4,1.9368827E5,1.2211499E4,2.1564806E5],"split_indices":[2,2,2,4,51,23,0,0,2,0,0,51,6,6,2,0,0,0,0,0,0,0,0,0,0,0,0,0,0],"split_type":[0,0,0,0,0,0,0,0,0,0,0,0,0,0,0,0,0,0,0,0,0,0,0,0,0,0,0,0,0],"sum_hessian":[1.162E3,4.11E2,7.51E2,1.36E2,2.75E2,5.35E2,2.16E2,1.2E2,1.6E1,2.51E2,2.4E1,4.48E2,8.7E1,1.66E2,5E1,1.3E1,3E0,2.3E2,2.1E1,2E0,2.2E1,4.21E2,2.7E1,4.1E1,4.6E1,6E1,1.06E2,4.7E1,3E0],"tree_param":{"num_deleted":"0","num_feature":"54","num_nodes":"29","size_leaf_vector":"1"}},{"base_weights":[5.508063E3,3.4870298E6,-1.7133358E6,-4.6412388E5,6.1853025E6,-3.7906855E6,-6.9479344E5,1.536205E6,-1.8136786E6,3.9602002E6,7.2794815E6,-4.198622E6,-1.9852196E6,3.7864606E5,-2.6402768E6,5.545939E4,-1.6611394E5,-8.408962E4,1.0532918E4,1.8192505E5,8.253409E4,1.754163E5,2.7077872E5,-1.2762669E5,1.12997984E5,-1.0310882E5,-8.0788037E3,8.4159164E4,-2.7345633E4,3.6481246E4,-1.1641803E5],"categories":[],"categories_nodes":[],"categories_segments":[],"categories_sizes":[],"default_left":[0,0,0,0,0,0,0,0,0,0,0,0,0,0,0,0,0,0,0,0,0,0,0,0,0,0,0,0,0,0,0],"id":45,"left_children":[1,3,5,7,9,11,13,15,17,19,21,23,25,27,29,-1,-1,-1,-1,-1,-1,-1,-1,-1,-1,-1,-1,-1,-1,-1,-1],"loss_changes":[7.097242E15,4.182096E15,1.6773657E15,4.347147E14,5.3844824E14,1.838952E14,1.11618335E15,1.5388638E14,2.0658075E14,1.8427933E14,3.3494464E14,1.0991358E14,1.2362849E14,1.082682E15,9.135049E14,0E0,0E0,0E0,0E0,0E0,0E0,0E0,0E0,0E0,0E0,0E0,0E0,0E0,0E0,0E0,0E0],"parents":[2147483647,0,0,1,1,2,2,3,3,4,4,5,5,6,6,7,7,8,8,9,9,10,10,11,11,12,12,13,13,14,14],"right_children":[2,4,6,8,10,12,14,16,18,20,22,24,26,28,30,-1,-1,-1,-1,-1,-1,-1,-1,-1,-1,-1,-1,-1,-1,-1,-1],"split_conditions":[1.8E1,9.98E1,6.5E1,1E1,1.023E2,1E0,3.1E1,1.2E2,9.83E1,8E0,8E1,1E0,9.95E1,1.1E1,6E0,5.545939E4,-1.6611394E5,-8.408962E4,1.0532918E4,1.8192505E5,8.253409E4,1.754163E5,2.7077872E5,-1.2762669E5,1.12997984E5,-1.0310882E5,-8.0788037E3,8.4159164E4,-2.7345633E4,3.6481246E4,-1.1641803E5],"split_indices":[3,6,2,3,6,4,3,0,6,3,2,25,6,0,0,0,0,0,0,0,0,0,0,0,0,0,0,0,0,0,0],"split_type":[0,0,0,0,0,0,0,0,0,0,0,0,0,0,0,0,0,0,0,0,0,0,0,0,0,0,0,0,0,0,0],"sum_hessian":[1.184E3,3.91E2,7.93E2,1.59E2,2.32E2,2.6E2,5.33E2,6.4E1,9.5E1,7.8E1,1.54E2,2.11E2,4.9E1,3.44E2,1.89E2,6.2E1,2E0,6.5E1,3E1,2.7E1,5.1E1,8.7E1,6.7E1,2.1E2,1E0,2.6E1,2.3E1,1.19E2,2.25E2,4.6E1,1.43E2],"tree_param":{"num_deleted":"0","num_feature":"54","num_nodes":"31","size_leaf_vector":"1"}},{"base_weights":[-3.3737445E4,-2.555546E6,1.4793935E6,-4.233976E6,-1.5847888E6,-2.0281644E6,2.1739255E6,-4.3068145E6,1.11303016E5,-1.1759081E6,-5.3877435E6,-2.4427968E6,1.9762E6,1.4538148E6,5.9506945E6,-1.3553719E5,-8.0833445E4,-5.492103E4,2.809679E4,-1.4131136E5,-2.4314989E5,-9.780168E4,1.966809E4,-2.3143389E4,1.21470336E5,5.4019387E4,-1.2125074E5,2.0401608E5,-6.623892E4],"categories":[],"categories_nodes":[],"categories_segments":[],"categories_sizes":[],"default_left":[0,0,0,0,0,0,0,0,0,0,0,0,0,0,0,0,0,0,0,0,0,0,0,0,0,0,0,0,0],"id":46,"left_children":[1,3,5,7,9,11,13,15,-1,17,19,21,23,25,27,-1,-1,-1,-1,-1,-1,-1,-1,-1,-1,-1,-1,-1,-1],"loss_changes":[4.487377E15,7.118326E14,1.7949506E15,1.09139146E14,4.3060664E14,2.0738884E14,1.6612397E15,4.2283685E13,0E0,3.5443798E14,1.1517894E13,2.83211E14,7.146782E13,9.926871E14,6.945048E14,0E0,0E0,0E0,0E0,0E0,0E0,0E0,0E0,0E0,0E0,0E0,0E0,0E0,0E0],"parents":[2147483647,0,0,1,1,2,2,3,3,4,4,5,5,6,6,7,7,9,9,10,10,11,11,12,12,13,13,14,14],"right_children":[2,4,6,8,10,12,14,16,-1,18,20,22,24,26,28,-1,-1,-1,-1,-1,-1,-1,-1,-1,-1,-1,-1,-1,-1],"split_conditions":[7E1,5E1,9.9E1,1E0,1E0,1E0,1E0,1E0,1.11303016E5,1.056E2,1.056E2,8.5E1,8E1,1E0,1E0,-1.3553719E5,-8.0833445E4,-5.492103E4,2.809679E4,-1.4131136E5,-2.4314989E5,-9.780168E4,1.966809E4,-2.3143389E4,1.21470336E5,5.4019387E4,-1.2125074E5,2.0401608E5,-6.623892E4],"split_indices":[2,2,6,25,51,43,23,4,0,6,6,2,2,51,50,0,0,0,0,0,0,0,0,0,0,0,0,0,0],"split_type":[0,0,0,0,0,0,0,0,0,0,0,0,0,0,0,0,0,0,0,0,0,0,0,0,0,0,0,0,0],"sum_hessian":[1.174E3,4.4E2,7.34E2,1.6E2,2.8E2,1.21E2,6.13E2,1.59E2,1E0,2.54E2,2.6E1,1.1E2,1.1E1,5.16E2,9.7E1,1.39E2,2E1,1.94E2,6E1,2.3E1,3E0,8.7E1,2.3E1,5E0,6E0,4.86E2,3E1,8.8E1,9E0],"tree_param":{"num_deleted":"0","num_feature":"54","num_nodes":"29","size_leaf_vector":"1"}},{"base_weights":[-1.2982219E5,5.077008E6,-1.2873775E6,5.452147E5,6.8799175E6,8.442448E4,-2.913773E6,2.716165E6,-7.8312925E5,8.3054415E6,4.08846E6,-2.6495658E6,2.3723495E6,-4.7031225E6,-1.893723E6,9.409923E4,-9.801462E4,2.780762E4,-7.625893E4,3.4253834E5,2.1885516E5,8.610718E4,1.7250322E5,-1.0352784E5,-2.9094035E4,1.0257504E5,-6.2901016E4,-1.6026533E5,-7.835222E4,-3.575928E4,-1.5728156E5],"categories":[],"categories_nodes":[],"categories_segments":[],"categories_sizes":[],"default_left":[0,0,0,0,0,0,0,0,0,0,0,0,0,0,0,0,0,0,0,0,0,0,0,0,0,0,0,0,0,0,0],"id":47,"left_children":[1,3,5,7,9,11,13,15,17,19,21,23,25,27,29,-1,-1,-1,-1,-1,-1,-1,-1,-1,-1,-1,-1,-1,-1,-1,-1],"loss_changes":[6.859456E15,1.6875243E15,2.0773931E15,1.7515325E14,5.549785E14,3.1713993E15,7.686397E14,6.8112242E13,1.1664864E14,2.2171749E14,8.875704E13,3.076026E14,1.2983752E15,1.9186988E14,6.353411E14,0E0,0E0,0E0,0E0,0E0,0E0,0E0,0E0,0E0,0E0,0E0,0E0,0E0,0E0,0E0,0E0],"parents":[2147483647,0,0,1,1,2,2,3,3,4,4,5,5,6,6,7,7,8,8,9,9,10,10,11,11,12,12,13,13,14,14],"right_children":[2,4,6,8,10,12,14,16,18,20,22,24,26,28,30,-1,-1,-1,-1,-1,-1,-1,-1,-1,-1,-1,-1,-1,-1,-1,-1],"split_conditions":[1.2E1,9.9E1,2.7E1,6E0,1.8E1,9.98E1,1.023E2,1.2E2,1E0,3E0,1.056E2,9.83E1,1.2E2,1E0,4.3E1,9.409923E4,-9.801462E4,2.780762E4,-7.625893E4,3.4253834E5,2.1885516E5,8.610718E4,1.7250322E5,-1.0352784E5,-2.9094035E4,1.0257504E5,-6.2901016E4,-1.6026533E5,-7.835222E4,-3.575928E4,-1.5728156E5],"split_indices":[3,6,3,3,0,6,6,0,50,3,6,6,0,4,3,0,0,0,0,0,0,0,0,0,0,0,0,0,0,0,0],"split_type":[0,0,0,0,0,0,0,0,0,0,0,0,0,0,0,0,0,0,0,0,0,0,0,0,0,0,0,0,0,0,0],"sum_hessian":[1.136E3,2.06E2,9.3E2,5.9E1,1.47E2,5.05E2,4.25E2,2.2E1,3.7E1,9.6E1,5.1E1,2.3E2,2.75E2,1.53E2,2.72E2,2.1E1,1E0,1.9E1,1.8E1,2.1E1,7.5E1,3.1E1,2E1,1.55E2,7.5E1,2.23E2,5.2E1,1.16E2,3.7E1,2.26E2,4.6E1],"tree_param":{"num_deleted":"0","num_feature":"54","num_nodes":"31","size_leaf_vector":"1"}},{"base_weights":[8.7079914E4,-2.4334015E6,1.5199785E6,-3.946184E6,-1.5526775E6,3.2088155E6,3.5880734E5,-4.0195012E6,1.1016985E5,-1.196622E6,-5.137552E6,3.519027E6,-2.601032E5,-1.172577E6,1.9811182E6,-1.2246186E5,8.328457E4,-8.719888E4,-1.4587145E4,-4.007409E4,-1.6267342E5,-1.5101399E3,1.1765328E5,-2.008453E4,-1.91138E5,8.147436E4,-5.6247055E4],"categories":[],"categories_nodes":[],"categories_segments":[],"categories_sizes":[],"default_left":[0,0,0,0,0,0,0,0,0,0,0,0,0,0,0,0,0,0,0,0,0,0,0,0,0,0,0],"id":48,"left_children":[1,3,5,7,9,11,13,15,-1,17,19,21,-1,23,25,-1,-1,-1,-1,-1,-1,-1,-1,-1,-1,-1,-1],"loss_changes":[4.2148168E15,5.5745454E14,1.4578543E15,1.0133895E14,3.372078E14,1.1470583E15,1.1004196E15,7.6804216E13,0E0,2.974181E14,1.875109E13,4.25715E14,0E0,5.92051E14,6.141857E14,0E0,0E0,0E0,0E0,0E0,0E0,0E0,0E0,0E0,0E0,0E0,0E0],"parents":[2147483647,0,0,1,1,2,2,3,3,4,4,5,5,6,6,7,7,9,9,10,10,11,11,13,13,14,14],"right_children":[2,4,6,8,10,12,14,16,-1,18,20,22,-1,24,26,-1,-1,-1,-1,-1,-1,-1,-1,-1,-1,-1,-1],"split_conditions":[7E1,5.5E1,1E1,1E0,1E0,1E0,8E1,1E0,1.1016985E5,9.9E1,2E1,9.9E1,-2.601032E5,1E0,1E0,-1.2246186E5,8.328457E4,-8.719888E4,-1.4587145E4,-4.007409E4,-1.6267342E5,-1.5101399E3,1.1765328E5,-2.008453E4,-1.91138E5,8.147436E4,-5.6247055E4],"split_indices":[2,2,0,25,51,46,2,24,0,6,0,6,0,51,48,0,0,0,0,0,0,0,0,0,0,0,0],"split_type":[0,0,0,0,0,0,0,0,0,0,0,0,0,0,0,0,0,0,0,0,0,0,0,0,0,0,0],"sum_hessian":[1.165E3,4.22E2,7.43E2,1.54E2,2.68E2,3.02E2,4.41E2,1.53E2,1E0,2.45E2,2.3E1,2.95E2,7E0,2.27E2,2.14E2,1.52E2,1E0,7.1E1,1.74E2,2E0,2.1E1,3E1,2.65E2,2.08E2,1.9E1,1.8E2,3.4E1],"tree_param":{"num_deleted":"0","num_feature":"54","num_nodes":"27","size_leaf_vector":"1"}},{"base_weights":[5.7674617E4,3.2379052E6,-1.5935164E6,-7.4574656E5,5.4539025E6,-2.9076012E6,-3.8798753E5,9.9407006E5,-2.3612892E6,3.372581E6,6.6052295E6,-2.1338275E6,-5.189759E6,4.3548785E6,-1.1063211E6,1.1697964E5,2.340279E3,-8.7411234E4,-8.18031E3,1.7078278E5,6.9539625E4,2.4852027E5,1.5439847E5,-1.0969204E5,-3.0274924E4,-1.8555316E5,-9.203973E4,1.6714847E5,4.8356113E4,-1.7033527E4,-1.47364E5],"categories":[],"categories_nodes":[],"categories_segments":[],"categories_sizes":[],"default_left":[0,0,0,0,0,0,0,0,0,0,0,0,0,0,0,0,0,0,0,0,0,0,0,0,0,0,0,0,0,0,0],"id":49,"left_children":[1,3,5,7,9,11,13,15,17,19,21,23,25,27,29,-1,-1,-1,-1,-1,-1,-1,-1,-1,-1,-1,-1,-1,-1,-1,-1],"loss_changes":[6.238296E15,3.5881384E15,1.2376909E15,4.1271646E14,6.031535E14,6.4936255E14,1.3982647E15,1.8865429E14,8.68934E13,2.1925452E14,3.662963E14,4.7748977E14,1.7954225E14,1.7124531E14,7.268581E14,0E0,0E0,0E0,0E0,0E0,0E0,0E0,0E0,0E0,0E0,0E0,0E0,0E0,0E0,0E0,0E0],"parents":[2147483647,0,0,1,1,2,2,3,3,4,4,5,5,6,6,7,7,8,8,9,9,10,10,11,11,12,12,13,13,14,14],"right_children":[2,4,6,8,10,12,14,16,18,20,22,24,26,28,30,-1,-1,-1,-1,-1,-1,-1,-1,-1,-1,-1,-1,-1,-1,-1,-1],"split_conditions":[1.8E1,9.95E1,1.023E2,1.1E1,1.023E2,3.1E1,2.3E1,7E0,9.83E1,8E0,9E0,9.83E1,1E0,1E0,4.3E1,1.1697964E5,2.340279E3,-8.7411234E4,-8.18031E3,1.7078278E5,6.9539625E4,2.4852027E5,1.5439847E5,-1.0969204E5,-3.0274924E4,-1.8555316E5,-9.203973E4,1.6714847E5,4.8356113E4,-1.7033527E4,-1.47364E5],"split_indices":[3,6,6,3,6,3,3,0,6,3,3,6,42,50,3,0,0,0,0,0,0,0,0,0,0,0,0,0,0,0,0],"split_type":[0,0,0,0,0,0,0,0,0,0,0,0,0,0,0,0,0,0,0,0,0,0,0,0,0,0,0,0,0,0,0],"sum_hessian":[1.186E3,4.05E2,7.81E2,1.45E2,2.6E2,3.73E2,4.08E2,7E1,7.5E1,9.4E1,1.66E2,2.8E2,9.3E1,5.3E1,3.55E2,1.6E1,5.4E1,5.9E1,1.6E1,2.8E1,6.6E1,7.5E1,9.1E1,1.18E2,1.62E2,6.2E1,3.1E1,3.6E1,1.7E1,3.12E2,4.3E1],"tree_param":{"num_deleted":"0","num_feature":"54","num_nodes":"31","size_leaf_vector":"1"}},{"base_weights":[-6.4792125E4,-2.4564308E6,1.2963908E6,-3.0665315E6,-5.242879E5,5.886724E5,5.047711E6,-3.362177E6,-7.918325E5,-1.1995255E5,1.6855514E5,-6.217139E5,1.9411499E6,5.7192375E6,-1.9432924E6,-9.530105E4,-1.6229284E5,-8.566195E4,5.7757285E4,4.6766008E4,-4.186254E4,5.775433E4,-4.1439547E4,7.649674E4,-7.0681555E4,1.3774325E5,2.2268181E5,1.832016E4,-8.932089E4],"categories":[],"categories_nodes":[],"categories_segments":[],"categories_sizes":[],"default_left":[0,0,0,0,0,0,0,0,0,0,0,0,0,0,0,0,0,0,0,0,0,0,0,0,0,0,0,0,0],"id":50,"left_children":[1,3,5,7,9,11,13,15,17,-1,19,21,23,25,27,-1,-1,-1,-1,-1,-1,-1,-1,-1,-1,-1,-1,-1,-1],"loss_changes":[3.7697492E15,4.9348906E14,1.956329E15,2.1186671E14,2.4619071E14,1.0194335E15,5.603872E14,8.991165E13,2.1855819E14,0E0,1.8917455E14,6.391442E14,7.75078E14,1.7148623E14,3.086897E13,0E0,0E0,0E0,0E0,0E0,0E0,0E0,0E0,0E0,0E0,0E0,0E0,0E0,0E0],"parents":[2147483647,0,0,1,1,2,2,3,3,4,4,5,5,6,6,7,7,8,8,10,10,11,11,12,12,13,13,14,14],"right_children":[2,4,6,8,10,12,14,16,18,-1,20,22,24,26,28,-1,-1,-1,-1,-1,-1,-1,-1,-1,-1,-1,-1,-1,-1],"split_conditions":[7E1,1E0,1E0,1E0,3.5E1,8E1,1E0,1E0,6.5E1,-1.1995255E5,0E0,7E0,1E0,2.5E-1,7.5E1,-9.530105E4,-1.6229284E5,-8.566195E4,5.7757285E4,4.6766008E4,-4.186254E4,5.775433E4,-4.1439547E4,7.649674E4,-7.0681555E4,1.3774325E5,2.2268181E5,1.832016E4,-8.932089E4],"split_indices":[2,4,23,47,2,2,50,38,2,0,5,0,48,5,2,0,0,0,0,0,0,0,0,0,0,0,0,0,0],"split_type":[0,0,0,0,0,0,0,0,0,0,0,0,0,0,0,0,0,0,0,0,0,0,0,0,0,0,0,0,0],"sum_hessian":[1.156E3,4.19E2,7.37E2,3.18E2,1.01E2,6.21E2,1.16E2,2.81E2,3.7E1,1.6E1,8.5E1,3.28E2,2.93E2,1.06E2,1E1,2.6E2,2.1E1,2.1E1,1.6E1,4.5E1,4E1,7.5E1,2.53E2,2.57E2,3.6E1,6.6E1,4E1,3E0,7E0],"tree_param":{"num_deleted":"0","num_feature":"54","num_nodes":"29","size_leaf_vector":"1"}},{"base_weights":[-3.9586926E4,2.7339045E6,-1.9435374E6,-1.305371E6,4.7834275E6,-3.2067402E6,-9.553137E5,2.9071145E6,-1.9979926E6,3.1310942E6,7.008549E6,-2.5095332E6,-4.7465975E6,-4.4221894E5,-5.2870615E6,1.0527711E5,1.1287974E3,-1.6814879E4,-8.581977E4,2.1475044E5,7.684016E4,-1.8806227E4,2.2313144E5,-1.1824503E5,-5.296187E4,-1.7724328E5,-8.230266E4,3.7579027E4,-5.826879E4,-1.7935992E5,3.3565575E5],"categories":[],"categories_nodes":[],"categories_segments":[],"categories_sizes":[],"default_left":[0,0,0,0,0,0,0,0,0,0,0,0,0,0,0,0,0,0,0,0,0,0,0,0,0,0,0,0,0,0,0],"id":51,"left_children":[1,3,5,7,9,11,13,15,17,19,21,23,25,27,29,-1,-1,-1,-1,-1,-1,-1,-1,-1,-1,-1,-1,-1,-1,-1,-1],"loss_changes":[6.1360786E15,3.922016E15,8.570336E14,4.7263377E14,1.1325211E15,3.1231526E14,8.600295E14,3.960698E13,1.6952776E14,3.992733E14,4.4048487E14,2.168137E14,2.0017581E14,8.8719005E14,5.3406952E14,0E0,0E0,0E0,0E0,0E0,0E0,0E0,0E0,0E0,0E0,0E0,0E0,0E0,0E0,0E0,0E0],"parents":[2147483647,0,0,1,1,2,2,3,3,4,4,5,5,6,6,7,7,8,8,9,9,10,10,11,11,12,12,13,13,14,14],"right_children":[2,4,6,8,10,12,14,16,18,20,22,24,26,28,30,-1,-1,-1,-1,-1,-1,-1,-1,-1,-1,-1,-1,-1,-1,-1,-1],"split_conditions":[2.1E1,9.9E1,1.023E2,6E0,1.056E2,3.1E1,4.3E1,1E0,1.3E1,3E0,6.5E1,9.83E1,1E0,1.1E1,6.9E1,1.0527711E5,1.1287974E3,-1.6814879E4,-8.581977E4,2.1475044E5,7.684016E4,-1.8806227E4,2.2313144E5,-1.1824503E5,-5.296187E4,-1.7724328E5,-8.230266E4,3.7579027E4,-5.826879E4,-1.7935992E5,3.3565575E5],"split_indices":[3,6,6,3,6,3,3,4,3,3,2,6,42,0,3,0,0,0,0,0,0,0,0,0,0,0,0,0,0,0,0],"split_type":[0,0,0,0,0,0,0,0,0,0,0,0,0,0,0,0,0,0,0,0,0,0,0,0,0,0,0,0,0,0,0],"sum_hessian":[1.16E3,4.72E2,6.88E2,1.59E2,3.13E2,3.01E2,3.87E2,2.2E1,1.37E2,1.81E2,1.32E2,2.09E2,9.2E1,3.47E2,4E1,1.8E1,4E0,5.2E1,8.5E1,2.1E1,1.6E2,7E0,1.25E2,7E1,1.39E2,5.7E1,3.5E1,1.63E2,1.84E2,3.9E1,1E0],"tree_param":{"num_deleted":"0","num_feature":"54","num_nodes":"31","size_leaf_vector":"1"}},{"base_weights":[3.8971508E4,3.3752998E6,-1.2710684E6,-6.827598E5,4.870548E6,-2.7645362E6,-1.4133883E5,2.5277265E6,-1.3585601E6,3.7531142E6,7.793506E6,-3.350954E6,-6.139846E5,2.809234E5,-6.4987115E6,4.8571133E4,1.1317104E5,7.533774E4,-5.9776543E4,2.3710889E5,9.151185E4,-6.2040996E4,2.4401977E5,-9.36348E4,-1.5815566E5,-8.077855E4,4.7609664E4,-8.538644E4,2.9760928E4,-3.801781E4,-2.2482934E5],"categories":[],"categories_nodes":[],"categories_segments":[],"categories_sizes":[],"default_left":[0,0,0,0,0,0,0,0,0,0,0,0,0,0,0,0,0,0,0,0,0,0,0,0,0,0,0,0,0,0,0],"id":52,"left_children":[1,3,5,7,9,11,13,15,17,19,21,23,25,27,29,-1,-1,-1,-1,-1,-1,-1,-1,-1,-1,-1,-1,-1,-1,-1,-1],"loss_changes":[5.131149E15,2.0117694E15,1.4219313E15,1.9870237E14,7.611729E14,4.557296E14,1.2930598E15,1.198826E13,1.8901114E14,4.9213722E14,2.3843108E14,1.0934826E14,3.6569952E14,1.0079502E15,1.4675554E14,0E0,0E0,0E0,0E0,0E0,0E0,0E0,0E0,0E0,0E0,0E0,0E0,0E0,0E0,0E0,0E0],"parents":[2147483647,0,0,1,1,2,2,3,3,4,4,5,5,6,6,7,7,8,8,9,9,10,10,11,11,12,12,13,13,14,14],"right_children":[2,4,6,8,10,12,14,16,18,20,22,24,26,28,30,-1,-1,-1,-1,-1,-1,-1,-1,-1,-1,-1,-1,-1,-1,-1,-1],"split_conditions":[1.6E1,9.83E1,7E1,1E1,1E-1,1E0,4.3E1,7.5E1,1E-1,3E0,1.5E0,4.3E1,9.95E1,